<?xml version="1.0"?>
<opencv_storage>
<!-- Created using Computer Vision System Toolbox(tm) for MATLAB(R) -->
<!-- Version 9.0.0.341360 (R2016a) -->
<!-- Compatible with OpenCV 2.4 -->
<cascade>
  <stageType>BOOST</stageType>
  <featureType>HOG</featureType>
  <height>32</height>
  <width>42</width>
  <stageParams>
    <boostType>GAB</boostType>
    <minHitRate>9.9500000476837158e-01</minHitRate>
    <maxFalseAlarm>2.0000000298023224e-01</maxFalseAlarm>
    <weightTrimRate>9.4999999999999996e-01</weightTrimRate>
    <maxDepth>1</maxDepth>
    <maxWeakCount>100</maxWeakCount></stageParams>
  <featureParams>
    <maxCatCount>0</maxCatCount>
    <featSize>36</featSize></featureParams>
  <stageNum>20</stageNum>
  <stages>
    <!-- stage 0 -->
    <_>
      <maxWeakCount>24</maxWeakCount>
      <stageThreshold>-1.2497265338897705e+00</stageThreshold>
      <weakClassifiers>
        <_>
          <internalNodes>
            0 -1 832 1.0090574622154236e-02</internalNodes>
          <leafValues>
            -8.1285876035690308e-01 2.0072259940207005e-03</leafValues></_>
        <_>
          <internalNodes>
            0 -1 846 8.6032785475254059e-03</internalNodes>
          <leafValues>
            -7.8331971168518066e-01 1.8318545818328857e-01</leafValues></_>
        <_>
          <internalNodes>
            0 -1 839 9.6166180446743965e-03</internalNodes>
          <leafValues>
            -7.0416426658630371e-01 2.5313052535057068e-01</leafValues></_>
        <_>
          <internalNodes>
            0 -1 837 7.8128241002559662e-03</internalNodes>
          <leafValues>
            -6.9131487607955933e-01 2.5294420123100281e-01</leafValues></_>
        <_>
          <internalNodes>
            0 -1 595 6.9711580872535706e-03</internalNodes>
          <leafValues>
            -5.3050047159194946e-01 1.6466531157493591e-01</leafValues></_>
        <_>
          <internalNodes>
            0 -1 812 1.6702827066183090e-02</internalNodes>
          <leafValues>
            -4.3138453364372253e-01 2.4437777698040009e-01</leafValues></_>
        <_>
          <internalNodes>
            0 -1 482 3.8583293557167053e-02</internalNodes>
          <leafValues>
            1.7395538091659546e-01 -4.7120398283004761e-01</leafValues></_>
        <_>
          <internalNodes>
            0 -1 435 4.4106565415859222e-02</internalNodes>
          <leafValues>
            1.2876194715499878e-01 -5.1856565475463867e-01</leafValues></_>
        <_>
          <internalNodes>
            0 -1 854 2.3154474794864655e-02</internalNodes>
          <leafValues>
            -2.3852474987506866e-01 2.8069901466369629e-01</leafValues></_>
        <_>
          <internalNodes>
            0 -1 817 4.1698636487126350e-03</internalNodes>
          <leafValues>
            -5.7599836587905884e-01 1.0886624455451965e-01</leafValues></_>
        <_>
          <internalNodes>
            0 -1 215 1.5491975471377373e-02</internalNodes>
          <leafValues>
            1.9136251509189606e-01 -3.5506635904312134e-01</leafValues></_>
        <_>
          <internalNodes>
            0 -1 741 2.2396825253963470e-02</internalNodes>
          <leafValues>
            -1.9278752803802490e-01 2.8411319851875305e-01</leafValues></_>
        <_>
          <internalNodes>
            0 -1 249 8.9806981850415468e-04</internalNodes>
          <leafValues>
            -6.8964028358459473e-01 7.4609093368053436e-02</leafValues></_>
        <_>
          <internalNodes>
            0 -1 59 6.6464319825172424e-02</internalNodes>
          <leafValues>
            6.4791083335876465e-02 -6.5338528156280518e-01</leafValues></_>
        <_>
          <internalNodes>
            0 -1 575 5.5680088698863983e-02</internalNodes>
          <leafValues>
            8.2615271210670471e-02 -5.4036933183670044e-01</leafValues></_>
        <_>
          <internalNodes>
            0 -1 128 1.2867676559835672e-04</internalNodes>
          <leafValues>
            -7.2603446245193481e-01 4.5564126223325729e-02</leafValues></_>
        <_>
          <internalNodes>
            0 -1 790 2.0143566653132439e-03</internalNodes>
          <leafValues>
            -7.7841907739639282e-01 3.7035211920738220e-02</leafValues></_>
        <_>
          <internalNodes>
            0 -1 802 1.4655520208179951e-02</internalNodes>
          <leafValues>
            1.5497960150241852e-01 -2.2458499670028687e-01</leafValues></_>
        <_>
          <internalNodes>
            0 -1 716 5.7066907174885273e-03</internalNodes>
          <leafValues>
            -3.8598722219467163e-01 7.1966588497161865e-02</leafValues></_>
        <_>
          <internalNodes>
            0 -1 501 1.6128588467836380e-02</internalNodes>
          <leafValues>
            -1.8302564322948456e-01 1.9348135590553284e-01</leafValues></_>
        <_>
          <internalNodes>
            0 -1 220 9.3890689313411713e-03</internalNodes>
          <leafValues>
            2.0404472947120667e-01 -1.8556739389896393e-01</leafValues></_>
        <_>
          <internalNodes>
            0 -1 597 1.1123202741146088e-02</internalNodes>
          <leafValues>
            -1.9511225819587708e-01 1.8181324005126953e-01</leafValues></_>
        <_>
          <internalNodes>
            0 -1 387 1.8661921843886375e-02</internalNodes>
          <leafValues>
            -1.4690236747264862e-01 2.2316721081733704e-01</leafValues></_>
        <_>
          <internalNodes>
            0 -1 659 1.1426788754761219e-02</internalNodes>
          <leafValues>
            -2.4138107895851135e-01 1.3716164231300354e-01</leafValues></_></weakClassifiers></_>
    <!-- stage 1 -->
    <_>
      <maxWeakCount>57</maxWeakCount>
      <stageThreshold>-1.0957077741622925e+00</stageThreshold>
      <weakClassifiers>
        <_>
          <internalNodes>
            0 -1 31 2.0287914201617241e-02</internalNodes>
          <leafValues>
            -4.6709127724170685e-02 -5.6321841478347778e-01</leafValues></_>
        <_>
          <internalNodes>
            0 -1 580 1.8822964280843735e-02</internalNodes>
          <leafValues>
            1.6895082592964172e-01 -4.3418097496032715e-01</leafValues></_>
        <_>
          <internalNodes>
            0 -1 844 4.4780182652175426e-03</internalNodes>
          <leafValues>
            -6.5352749824523926e-01 1.0905831307172775e-01</leafValues></_>
        <_>
          <internalNodes>
            0 -1 390 1.3047266751527786e-02</internalNodes>
          <leafValues>
            2.7251067757606506e-01 -2.6816114783287048e-01</leafValues></_>
        <_>
          <internalNodes>
            0 -1 435 5.9727940708398819e-02</internalNodes>
          <leafValues>
            6.9377131760120392e-02 -6.5319854021072388e-01</leafValues></_>
        <_>
          <internalNodes>
            0 -1 717 4.2547248303890228e-03</internalNodes>
          <leafValues>
            -6.2881940603256226e-01 1.0656553506851196e-01</leafValues></_>
        <_>
          <internalNodes>
            0 -1 743 1.2670245021581650e-02</internalNodes>
          <leafValues>
            -3.3203727006912231e-01 1.6408990323543549e-01</leafValues></_>
        <_>
          <internalNodes>
            0 -1 595 2.1959282457828522e-02</internalNodes>
          <leafValues>
            -2.2319327294826508e-01 2.8955394029617310e-01</leafValues></_>
        <_>
          <internalNodes>
            0 -1 733 4.9920886754989624e-02</internalNodes>
          <leafValues>
            -8.0813981592655182e-02 5.3073930740356445e-01</leafValues></_>
        <_>
          <internalNodes>
            0 -1 604 3.0873250216245651e-02</internalNodes>
          <leafValues>
            -2.0627489686012268e-01 2.8920587897300720e-01</leafValues></_>
        <_>
          <internalNodes>
            0 -1 858 1.3136824592947960e-02</internalNodes>
          <leafValues>
            -3.0900004506111145e-01 1.6162186861038208e-01</leafValues></_>
        <_>
          <internalNodes>
            0 -1 842 9.5122996717691422e-03</internalNodes>
          <leafValues>
            -3.1861835718154907e-01 1.9149579107761383e-01</leafValues></_>
        <_>
          <internalNodes>
            0 -1 537 3.0550755560398102e-02</internalNodes>
          <leafValues>
            1.1185652762651443e-01 -4.4681754708290100e-01</leafValues></_>
        <_>
          <internalNodes>
            0 -1 479 4.1795842349529266e-02</internalNodes>
          <leafValues>
            -9.7572468221187592e-02 4.9240294098854065e-01</leafValues></_>
        <_>
          <internalNodes>
            0 -1 434 7.4898228049278259e-02</internalNodes>
          <leafValues>
            6.2551863491535187e-02 -6.3877362012863159e-01</leafValues></_>
        <_>
          <internalNodes>
            0 -1 816 2.8661438263952732e-03</internalNodes>
          <leafValues>
            -8.0450576543807983e-01 4.0434256196022034e-02</leafValues></_>
        <_>
          <internalNodes>
            0 -1 636 2.9830092564225197e-02</internalNodes>
          <leafValues>
            1.3878214359283447e-01 -2.9090681672096252e-01</leafValues></_>
        <_>
          <internalNodes>
            0 -1 284 7.7347001933958381e-05</internalNodes>
          <leafValues>
            -6.3861107826232910e-01 5.7160701602697372e-02</leafValues></_>
        <_>
          <internalNodes>
            0 -1 95 8.0195739865303040e-02</internalNodes>
          <leafValues>
            -6.6063970327377319e-02 6.1119973659515381e-01</leafValues></_>
        <_>
          <internalNodes>
            0 -1 845 3.6033443175256252e-03</internalNodes>
          <leafValues>
            -7.9548329114913940e-01 5.3737394511699677e-02</leafValues></_>
        <_>
          <internalNodes>
            0 -1 668 6.1271912418305874e-03</internalNodes>
          <leafValues>
            2.8563079237937927e-01 -1.4002661406993866e-01</leafValues></_>
        <_>
          <internalNodes>
            0 -1 20 1.7529161646962166e-02</internalNodes>
          <leafValues>
            -1.7810802161693573e-01 2.1849994361400604e-01</leafValues></_>
        <_>
          <internalNodes>
            0 -1 182 2.4797249585390091e-02</internalNodes>
          <leafValues>
            2.1324013173580170e-01 -1.9254107773303986e-01</leafValues></_>
        <_>
          <internalNodes>
            0 -1 573 2.4553738534450531e-02</internalNodes>
          <leafValues>
            -1.1921738833189011e-01 3.0864810943603516e-01</leafValues></_>
        <_>
          <internalNodes>
            0 -1 862 7.8585706651210785e-03</internalNodes>
          <leafValues>
            -5.2903419733047485e-01 8.1788167357444763e-02</leafValues></_>
        <_>
          <internalNodes>
            0 -1 740 3.5821735858917236e-02</internalNodes>
          <leafValues>
            7.5227744877338409e-02 -4.4308269023895264e-01</leafValues></_>
        <_>
          <internalNodes>
            0 -1 789 4.2549623176455498e-03</internalNodes>
          <leafValues>
            -5.6199830770492554e-01 5.8552615344524384e-02</leafValues></_>
        <_>
          <internalNodes>
            0 -1 672 3.6426264792680740e-02</internalNodes>
          <leafValues>
            -1.3481050729751587e-01 2.7947527170181274e-01</leafValues></_>
        <_>
          <internalNodes>
            0 -1 595 7.6349796727299690e-03</internalNodes>
          <leafValues>
            -3.1328666210174561e-01 9.7987867891788483e-02</leafValues></_>
        <_>
          <internalNodes>
            0 -1 22 9.1055845841765404e-03</internalNodes>
          <leafValues>
            2.7477797865867615e-01 -1.1866103112697601e-01</leafValues></_>
        <_>
          <internalNodes>
            0 -1 470 9.8787266761064529e-03</internalNodes>
          <leafValues>
            -2.5301438570022583e-01 1.5546825528144836e-01</leafValues></_>
        <_>
          <internalNodes>
            0 -1 261 1.2519024312496185e-02</internalNodes>
          <leafValues>
            1.6260868310928345e-01 -2.0158685743808746e-01</leafValues></_>
        <_>
          <internalNodes>
            0 -1 830 4.2104907333850861e-02</internalNodes>
          <leafValues>
            6.6429175436496735e-02 -4.3973717093467712e-01</leafValues></_>
        <_>
          <internalNodes>
            0 -1 81 4.2250212281942368e-02</internalNodes>
          <leafValues>
            -8.9965052902698517e-02 3.9385575056076050e-01</leafValues></_>
        <_>
          <internalNodes>
            0 -1 806 5.6888751685619354e-02</internalNodes>
          <leafValues>
            5.1068052649497986e-02 -6.6233438253402710e-01</leafValues></_>
        <_>
          <internalNodes>
            0 -1 863 3.2977256923913956e-02</internalNodes>
          <leafValues>
            1.3083788752555847e-01 -2.3853617906570435e-01</leafValues></_>
        <_>
          <internalNodes>
            0 -1 733 3.5718522965908051e-02</internalNodes>
          <leafValues>
            -9.7114853560924530e-02 3.1719234585762024e-01</leafValues></_>
        <_>
          <internalNodes>
            0 -1 818 4.0651187300682068e-03</internalNodes>
          <leafValues>
            -6.0766559839248657e-01 5.6948181241750717e-02</leafValues></_>
        <_>
          <internalNodes>
            0 -1 315 2.3048400878906250e-02</internalNodes>
          <leafValues>
            1.5018135309219360e-01 -2.3044416308403015e-01</leafValues></_>
        <_>
          <internalNodes>
            0 -1 769 4.0379874408245087e-02</internalNodes>
          <leafValues>
            9.1361090540885925e-02 -3.4680587053298950e-01</leafValues></_>
        <_>
          <internalNodes>
            0 -1 814 4.7431252896785736e-03</internalNodes>
          <leafValues>
            -7.0816427469253540e-01 4.0917225182056427e-02</leafValues></_>
        <_>
          <internalNodes>
            0 -1 116 1.4696229482069612e-03</internalNodes>
          <leafValues>
            -6.1905419826507568e-01 3.8248848170042038e-02</leafValues></_>
        <_>
          <internalNodes>
            0 -1 0 1.0571721941232681e-02</internalNodes>
          <leafValues>
            1.8078091740608215e-01 -1.7469374835491180e-01</leafValues></_>
        <_>
          <internalNodes>
            0 -1 665 5.2709872834384441e-03</internalNodes>
          <leafValues>
            4.3383803963661194e-01 -8.0361254513263702e-02</leafValues></_>
        <_>
          <internalNodes>
            0 -1 65 2.8708629310131073e-02</internalNodes>
          <leafValues>
            -1.1516185849905014e-01 2.7588444948196411e-01</leafValues></_>
        <_>
          <internalNodes>
            0 -1 398 2.7557680383324623e-02</internalNodes>
          <leafValues>
            -1.2509110569953918e-01 2.4638558924198151e-01</leafValues></_>
        <_>
          <internalNodes>
            0 -1 855 7.0231750607490540e-02</internalNodes>
          <leafValues>
            6.3900634646415710e-02 -4.5821699500083923e-01</leafValues></_>
        <_>
          <internalNodes>
            0 -1 29 7.3820054531097412e-02</internalNodes>
          <leafValues>
            -4.3632481247186661e-02 6.8184304237365723e-01</leafValues></_>
        <_>
          <internalNodes>
            0 -1 623 3.3116914331912994e-02</internalNodes>
          <leafValues>
            9.6882246434688568e-02 -3.0484798550605774e-01</leafValues></_>
        <_>
          <internalNodes>
            0 -1 142 3.1493562273681164e-03</internalNodes>
          <leafValues>
            -3.5783830285072327e-01 8.5778743028640747e-02</leafValues></_>
        <_>
          <internalNodes>
            0 -1 421 8.9382322039455175e-04</internalNodes>
          <leafValues>
            -4.7829625010490417e-01 5.3526513278484344e-02</leafValues></_>
        <_>
          <internalNodes>
            0 -1 304 9.7230195999145508e-02</internalNodes>
          <leafValues>
            4.3067023158073425e-02 -6.2757432460784912e-01</leafValues></_>
        <_>
          <internalNodes>
            0 -1 380 9.8061159253120422e-02</internalNodes>
          <leafValues>
            -4.8863809555768967e-02 6.3912713527679443e-01</leafValues></_>
        <_>
          <internalNodes>
            0 -1 31 4.4153973460197449e-02</internalNodes>
          <leafValues>
            9.9088713526725769e-02 -3.0079567432403564e-01</leafValues></_>
        <_>
          <internalNodes>
            0 -1 55 8.3771586418151855e-02</internalNodes>
          <leafValues>
            -6.1198133975267410e-02 4.6280816197395325e-01</leafValues></_>
        <_>
          <internalNodes>
            0 -1 486 3.6298058927059174e-02</internalNodes>
          <leafValues>
            -1.0235840827226639e-01 2.8605559468269348e-01</leafValues></_>
        <_>
          <internalNodes>
            0 -1 435 1.8964573740959167e-02</internalNodes>
          <leafValues>
            1.7170427739620209e-01 -1.8187515437602997e-01</leafValues></_></weakClassifiers></_>
    <!-- stage 2 -->
    <_>
      <maxWeakCount>75</maxWeakCount>
      <stageThreshold>-1.1892230510711670e+00</stageThreshold>
      <weakClassifiers>
        <_>
          <internalNodes>
            0 -1 70 1.3638244941830635e-02</internalNodes>
          <leafValues>
            -4.7233469784259796e-02 -4.8745909333229065e-01</leafValues></_>
        <_>
          <internalNodes>
            0 -1 812 3.0823819339275360e-02</internalNodes>
          <leafValues>
            -2.2432023286819458e-01 2.2954392433166504e-01</leafValues></_>
        <_>
          <internalNodes>
            0 -1 394 5.3659714758396149e-02</internalNodes>
          <leafValues>
            -1.1519747227430344e-01 4.0993255376815796e-01</leafValues></_>
        <_>
          <internalNodes>
            0 -1 741 9.0163573622703552e-03</internalNodes>
          <leafValues>
            -3.3133572340011597e-01 1.3360539078712463e-01</leafValues></_>
        <_>
          <internalNodes>
            0 -1 398 5.4340243339538574e-02</internalNodes>
          <leafValues>
            -8.3506695926189423e-02 5.0337553024291992e-01</leafValues></_>
        <_>
          <internalNodes>
            0 -1 11 1.9993282854557037e-02</internalNodes>
          <leafValues>
            1.5223163366317749e-01 -3.0585610866546631e-01</leafValues></_>
        <_>
          <internalNodes>
            0 -1 240 2.1341899409890175e-02</internalNodes>
          <leafValues>
            2.1301117539405823e-01 -1.9297315180301666e-01</leafValues></_>
        <_>
          <internalNodes>
            0 -1 837 7.5740590691566467e-03</internalNodes>
          <leafValues>
            -4.8131775856018066e-01 8.3370178937911987e-02</leafValues></_>
        <_>
          <internalNodes>
            0 -1 530 5.7692557573318481e-02</internalNodes>
          <leafValues>
            8.0783411860466003e-02 -4.7791427373886108e-01</leafValues></_>
        <_>
          <internalNodes>
            0 -1 705 8.3815112709999084e-02</internalNodes>
          <leafValues>
            3.4588761627674103e-02 -8.1264036893844604e-01</leafValues></_>
        <_>
          <internalNodes>
            0 -1 861 4.1454192250967026e-03</internalNodes>
          <leafValues>
            -6.6958326101303101e-01 4.3413806706666946e-02</leafValues></_>
        <_>
          <internalNodes>
            0 -1 661 3.8923513144254684e-02</internalNodes>
          <leafValues>
            -1.1410553008317947e-01 3.7235203385353088e-01</leafValues></_>
        <_>
          <internalNodes>
            0 -1 541 4.7285486944019794e-03</internalNodes>
          <leafValues>
            -4.7202569246292114e-01 6.7893512547016144e-02</leafValues></_>
        <_>
          <internalNodes>
            0 -1 770 3.8951039314270020e-02</internalNodes>
          <leafValues>
            1.1444161087274551e-01 -3.7334653735160828e-01</leafValues></_>
        <_>
          <internalNodes>
            0 -1 313 6.5587677061557770e-02</internalNodes>
          <leafValues>
            -7.1158163249492645e-02 5.5430036783218384e-01</leafValues></_>
        <_>
          <internalNodes>
            0 -1 482 5.9067070484161377e-02</internalNodes>
          <leafValues>
            7.0769257843494415e-02 -5.3555929660797119e-01</leafValues></_>
        <_>
          <internalNodes>
            0 -1 382 1.5466672368347645e-02</internalNodes>
          <leafValues>
            1.4716231822967529e-01 -2.4612891674041748e-01</leafValues></_>
        <_>
          <internalNodes>
            0 -1 595 1.1016249656677246e-02</internalNodes>
          <leafValues>
            -2.6179245114326477e-01 1.3794916868209839e-01</leafValues></_>
        <_>
          <internalNodes>
            0 -1 7 8.9048497378826141e-02</internalNodes>
          <leafValues>
            -6.6159889101982117e-02 6.6557216644287109e-01</leafValues></_>
        <_>
          <internalNodes>
            0 -1 447 1.8481713533401489e-01</internalNodes>
          <leafValues>
            -3.7968952208757401e-02 8.6996710300445557e-01</leafValues></_>
        <_>
          <internalNodes>
            0 -1 1 1.7230939120054245e-02</internalNodes>
          <leafValues>
            1.7798396944999695e-01 -1.9146564602851868e-01</leafValues></_>
        <_>
          <internalNodes>
            0 -1 15 1.4198255538940430e-01</internalNodes>
          <leafValues>
            4.1301827877759933e-02 -9.0597653388977051e-01</leafValues></_>
        <_>
          <internalNodes>
            0 -1 148 2.2136471234261990e-03</internalNodes>
          <leafValues>
            -4.8367553949356079e-01 5.3270202130079269e-02</leafValues></_>
        <_>
          <internalNodes>
            0 -1 139 5.0339929759502411e-02</internalNodes>
          <leafValues>
            -8.7363615632057190e-02 4.5866152644157410e-01</leafValues></_>
        <_>
          <internalNodes>
            0 -1 487 5.8986850082874298e-02</internalNodes>
          <leafValues>
            -7.4871443212032318e-02 4.2642283439636230e-01</leafValues></_>
        <_>
          <internalNodes>
            0 -1 483 7.6208978891372681e-02</internalNodes>
          <leafValues>
            6.9922544062137604e-02 -6.3662290573120117e-01</leafValues></_>
        <_>
          <internalNodes>
            0 -1 733 3.0922135338187218e-02</internalNodes>
          <leafValues>
            -1.2886130809783936e-01 2.8206685185432434e-01</leafValues></_>
        <_>
          <internalNodes>
            0 -1 12 7.7800489962100983e-02</internalNodes>
          <leafValues>
            -4.8641778528690338e-02 7.6738190650939941e-01</leafValues></_>
        <_>
          <internalNodes>
            0 -1 747 7.3194801807403564e-03</internalNodes>
          <leafValues>
            -3.5034713149070740e-01 1.0994700342416763e-01</leafValues></_>
        <_>
          <internalNodes>
            0 -1 134 4.4066146016120911e-02</internalNodes>
          <leafValues>
            7.2718158364295959e-02 -3.6252585053443909e-01</leafValues></_>
        <_>
          <internalNodes>
            0 -1 795 3.8141235709190369e-02</internalNodes>
          <leafValues>
            -8.9540742337703705e-02 3.8511070609092712e-01</leafValues></_>
        <_>
          <internalNodes>
            0 -1 798 1.5128180384635925e-02</internalNodes>
          <leafValues>
            -2.0097260177135468e-01 1.6613227128982544e-01</leafValues></_>
        <_>
          <internalNodes>
            0 -1 473 4.1326582431793213e-02</internalNodes>
          <leafValues>
            -6.2613599002361298e-02 4.7925525903701782e-01</leafValues></_>
        <_>
          <internalNodes>
            0 -1 806 2.3609139025211334e-02</internalNodes>
          <leafValues>
            1.0644836723804474e-01 -2.9949554800987244e-01</leafValues></_>
        <_>
          <internalNodes>
            0 -1 842 5.2127847447991371e-03</internalNodes>
          <leafValues>
            -3.4379437565803528e-01 8.9457586407661438e-02</leafValues></_>
        <_>
          <internalNodes>
            0 -1 672 3.7642575800418854e-02</internalNodes>
          <leafValues>
            -1.3946929574012756e-01 2.5943070650100708e-01</leafValues></_>
        <_>
          <internalNodes>
            0 -1 463 2.8979450464248657e-02</internalNodes>
          <leafValues>
            1.3118894398212433e-01 -2.4703332781791687e-01</leafValues></_>
        <_>
          <internalNodes>
            0 -1 476 2.7647959068417549e-02</internalNodes>
          <leafValues>
            -1.5568704903125763e-01 2.1588684618473053e-01</leafValues></_>
        <_>
          <internalNodes>
            0 -1 218 2.8815357945859432e-03</internalNodes>
          <leafValues>
            5.7288354635238647e-01 -5.6827284395694733e-02</leafValues></_>
        <_>
          <internalNodes>
            0 -1 380 7.6830044388771057e-02</internalNodes>
          <leafValues>
            -5.0202384591102600e-02 4.8711118102073669e-01</leafValues></_>
        <_>
          <internalNodes>
            0 -1 479 7.1796357631683350e-02</internalNodes>
          <leafValues>
            -3.7866387516260147e-02 6.9784176349639893e-01</leafValues></_>
        <_>
          <internalNodes>
            0 -1 334 3.0282954685389996e-04</internalNodes>
          <leafValues>
            -5.6424510478973389e-01 5.4978959262371063e-02</leafValues></_>
        <_>
          <internalNodes>
            0 -1 743 6.8937214091420174e-03</internalNodes>
          <leafValues>
            -3.8816767930984497e-01 6.3883759081363678e-02</leafValues></_>
        <_>
          <internalNodes>
            0 -1 427 9.3656018376350403e-02</internalNodes>
          <leafValues>
            -5.9175126254558563e-02 5.2406752109527588e-01</leafValues></_>
        <_>
          <internalNodes>
            0 -1 228 1.7006406560540199e-02</internalNodes>
          <leafValues>
            -1.2266919761896133e-01 2.0575883984565735e-01</leafValues></_>
        <_>
          <internalNodes>
            0 -1 6 3.5765226930379868e-02</internalNodes>
          <leafValues>
            7.6243333518505096e-02 -3.7534189224243164e-01</leafValues></_>
        <_>
          <internalNodes>
            0 -1 20 1.3149450533092022e-03</internalNodes>
          <leafValues>
            -4.7650119662284851e-01 5.6442134082317352e-02</leafValues></_>
        <_>
          <internalNodes>
            0 -1 209 2.4445516988635063e-02</internalNodes>
          <leafValues>
            8.3011209964752197e-02 -3.0057591199874878e-01</leafValues></_>
        <_>
          <internalNodes>
            0 -1 489 3.0774073675274849e-03</internalNodes>
          <leafValues>
            -5.0893712043762207e-01 5.1864854991436005e-02</leafValues></_>
        <_>
          <internalNodes>
            0 -1 3 4.3856464326381683e-03</internalNodes>
          <leafValues>
            3.9668112993240356e-01 -7.2322413325309753e-02</leafValues></_>
        <_>
          <internalNodes>
            0 -1 357 1.2819501571357250e-02</internalNodes>
          <leafValues>
            2.2208651900291443e-01 -1.2611913681030273e-01</leafValues></_>
        <_>
          <internalNodes>
            0 -1 741 1.1714758584275842e-03</internalNodes>
          <leafValues>
            -8.1219917535781860e-01 3.1645689159631729e-02</leafValues></_>
        <_>
          <internalNodes>
            0 -1 212 1.5019984915852547e-02</internalNodes>
          <leafValues>
            1.2024287879467010e-01 -2.2666168212890625e-01</leafValues></_>
        <_>
          <internalNodes>
            0 -1 449 9.1533802449703217e-02</internalNodes>
          <leafValues>
            -4.0532425045967102e-02 6.5621542930603027e-01</leafValues></_>
        <_>
          <internalNodes>
            0 -1 824 4.9599511548876762e-03</internalNodes>
          <leafValues>
            -4.5762982964515686e-01 6.0425400733947754e-02</leafValues></_>
        <_>
          <internalNodes>
            0 -1 42 2.0288255065679550e-02</internalNodes>
          <leafValues>
            1.1816509813070297e-01 -2.2438465058803558e-01</leafValues></_>
        <_>
          <internalNodes>
            0 -1 856 3.0174925923347473e-03</internalNodes>
          <leafValues>
            -5.8252733945846558e-01 4.5445375144481659e-02</leafValues></_>
        <_>
          <internalNodes>
            0 -1 485 6.0650531202554703e-02</internalNodes>
          <leafValues>
            -4.6454370021820068e-02 7.0087355375289917e-01</leafValues></_>
        <_>
          <internalNodes>
            0 -1 667 5.6298456911463290e-05</internalNodes>
          <leafValues>
            -7.3191815614700317e-01 4.1901599615812302e-02</leafValues></_>
        <_>
          <internalNodes>
            0 -1 862 5.4040448740124702e-03</internalNodes>
          <leafValues>
            -6.2114977836608887e-01 3.6089040338993073e-02</leafValues></_>
        <_>
          <internalNodes>
            0 -1 423 2.6019185781478882e-02</internalNodes>
          <leafValues>
            1.4631785452365875e-01 -2.0877668261528015e-01</leafValues></_>
        <_>
          <internalNodes>
            0 -1 693 8.5441894829273224e-02</internalNodes>
          <leafValues>
            -4.1246768087148666e-02 6.5163135528564453e-01</leafValues></_>
        <_>
          <internalNodes>
            0 -1 502 6.2512392178177834e-03</internalNodes>
          <leafValues>
            -3.3215653896331787e-01 8.6853928864002228e-02</leafValues></_>
        <_>
          <internalNodes>
            0 -1 84 5.1288958638906479e-03</internalNodes>
          <leafValues>
            -3.0690124630928040e-01 8.1039197742938995e-02</leafValues></_>
        <_>
          <internalNodes>
            0 -1 733 5.5732488632202148e-02</internalNodes>
          <leafValues>
            -7.0942260324954987e-02 4.3519210815429688e-01</leafValues></_>
        <_>
          <internalNodes>
            0 -1 441 6.8199031054973602e-02</internalNodes>
          <leafValues>
            3.7725776433944702e-02 -6.8230915069580078e-01</leafValues></_>
        <_>
          <internalNodes>
            0 -1 31 4.9938946962356567e-02</internalNodes>
          <leafValues>
            7.4274323880672455e-02 -3.6058667302131653e-01</leafValues></_>
        <_>
          <internalNodes>
            0 -1 399 7.7637523412704468e-02</internalNodes>
          <leafValues>
            -4.4361900538206100e-02 6.1842066049575806e-01</leafValues></_>
        <_>
          <internalNodes>
            0 -1 392 7.5589288026094437e-03</internalNodes>
          <leafValues>
            -2.9831901192665100e-01 1.0464334487915039e-01</leafValues></_>
        <_>
          <internalNodes>
            0 -1 434 5.7916045188903809e-02</internalNodes>
          <leafValues>
            6.7901708185672760e-02 -4.0425899624824524e-01</leafValues></_>
        <_>
          <internalNodes>
            0 -1 197 4.1725989431142807e-02</internalNodes>
          <leafValues>
            -7.0460967719554901e-02 3.9543810486793518e-01</leafValues></_>
        <_>
          <internalNodes>
            0 -1 256 4.8937601968646049e-03</internalNodes>
          <leafValues>
            2.5401628017425537e-01 -1.1797038465738297e-01</leafValues></_>
        <_>
          <internalNodes>
            0 -1 354 1.0651218146085739e-01</internalNodes>
          <leafValues>
            -5.1848854869604111e-02 5.4015654325485229e-01</leafValues></_>
        <_>
          <internalNodes>
            0 -1 396 6.0918682720512152e-04</internalNodes>
          <leafValues>
            -4.6691426634788513e-01 5.9515282511711121e-02</leafValues></_>
        <_>
          <internalNodes>
            0 -1 409 1.0843625664710999e-01</internalNodes>
          <leafValues>
            3.9391700178384781e-02 -6.3451004028320312e-01</leafValues></_></weakClassifiers></_>
    <!-- stage 3 -->
    <_>
      <maxWeakCount>85</maxWeakCount>
      <stageThreshold>-1.1503001451492310e+00</stageThreshold>
      <weakClassifiers>
        <_>
          <internalNodes>
            0 -1 654 3.9384111762046814e-02</internalNodes>
          <leafValues>
            -2.1466314792633057e-01 -6.3153529167175293e-01</leafValues></_>
        <_>
          <internalNodes>
            0 -1 582 2.5035873055458069e-02</internalNodes>
          <leafValues>
            -2.2965107858181000e-01 2.0809760689735413e-01</leafValues></_>
        <_>
          <internalNodes>
            0 -1 452 3.1633019447326660e-02</internalNodes>
          <leafValues>
            1.6104659438133240e-01 -3.1172910332679749e-01</leafValues></_>
        <_>
          <internalNodes>
            0 -1 492 5.1077096723020077e-03</internalNodes>
          <leafValues>
            -4.2124989628791809e-01 9.4976209104061127e-02</leafValues></_>
        <_>
          <internalNodes>
            0 -1 594 3.9379045367240906e-02</internalNodes>
          <leafValues>
            -1.1868780851364136e-01 3.5151314735412598e-01</leafValues></_>
        <_>
          <internalNodes>
            0 -1 561 1.4577025547623634e-02</internalNodes>
          <leafValues>
            -1.9584800302982330e-01 1.6792340576648712e-01</leafValues></_>
        <_>
          <internalNodes>
            0 -1 840 3.0810087919235229e-03</internalNodes>
          <leafValues>
            -8.1677925586700439e-01 3.9528857916593552e-02</leafValues></_>
        <_>
          <internalNodes>
            0 -1 703 3.2088302075862885e-02</internalNodes>
          <leafValues>
            -1.1025999486446381e-01 3.1869101524353027e-01</leafValues></_>
        <_>
          <internalNodes>
            0 -1 85 3.6036029458045959e-02</internalNodes>
          <leafValues>
            -1.3107188045978546e-01 2.6160416007041931e-01</leafValues></_>
        <_>
          <internalNodes>
            0 -1 671 6.0824844986200333e-02</internalNodes>
          <leafValues>
            -8.6334034800529480e-02 4.1832786798477173e-01</leafValues></_>
        <_>
          <internalNodes>
            0 -1 15 1.1625488847494125e-01</internalNodes>
          <leafValues>
            4.4249624013900757e-02 -7.7491855621337891e-01</leafValues></_>
        <_>
          <internalNodes>
            0 -1 30 3.2552683260291815e-03</internalNodes>
          <leafValues>
            3.5251712799072266e-01 -1.0702362656593323e-01</leafValues></_>
        <_>
          <internalNodes>
            0 -1 774 1.3905249536037445e-02</internalNodes>
          <leafValues>
            -2.1668702363967896e-01 1.4966616034507751e-01</leafValues></_>
        <_>
          <internalNodes>
            0 -1 595 3.3881600946187973e-02</internalNodes>
          <leafValues>
            -1.0368070006370544e-01 3.1624820828437805e-01</leafValues></_>
        <_>
          <internalNodes>
            0 -1 582 7.4397087097167969e-02</internalNodes>
          <leafValues>
            -6.2208741903305054e-02 4.9697807431221008e-01</leafValues></_>
        <_>
          <internalNodes>
            0 -1 743 5.1854522898793221e-03</internalNodes>
          <leafValues>
            -4.8943245410919189e-01 6.3500419259071350e-02</leafValues></_>
        <_>
          <internalNodes>
            0 -1 782 3.6038801074028015e-02</internalNodes>
          <leafValues>
            1.0070474445819855e-01 -2.6597636938095093e-01</leafValues></_>
        <_>
          <internalNodes>
            0 -1 842 1.1457223445177078e-02</internalNodes>
          <leafValues>
            -2.2029449045658112e-01 1.4529532194137573e-01</leafValues></_>
        <_>
          <internalNodes>
            0 -1 626 1.4102530479431152e-01</internalNodes>
          <leafValues>
            3.0167365446686745e-02 -8.6742347478866577e-01</leafValues></_>
        <_>
          <internalNodes>
            0 -1 642 4.2980864644050598e-02</internalNodes>
          <leafValues>
            -1.3797914981842041e-01 2.6076573133468628e-01</leafValues></_>
        <_>
          <internalNodes>
            0 -1 650 8.3937555551528931e-02</internalNodes>
          <leafValues>
            -6.0303166508674622e-02 5.0121080875396729e-01</leafValues></_>
        <_>
          <internalNodes>
            0 -1 598 3.5612271167337894e-03</internalNodes>
          <leafValues>
            6.6834777593612671e-01 -4.4297069311141968e-02</leafValues></_>
        <_>
          <internalNodes>
            0 -1 648 6.7316688597202301e-02</internalNodes>
          <leafValues>
            -3.6771494895219803e-02 7.0612692832946777e-01</leafValues></_>
        <_>
          <internalNodes>
            0 -1 313 8.4964200854301453e-02</internalNodes>
          <leafValues>
            -4.0793772786855698e-02 5.5246740579605103e-01</leafValues></_>
        <_>
          <internalNodes>
            0 -1 740 4.2345598340034485e-02</internalNodes>
          <leafValues>
            5.9118900448083878e-02 -4.5833167433738708e-01</leafValues></_>
        <_>
          <internalNodes>
            0 -1 406 7.8496672213077545e-02</internalNodes>
          <leafValues>
            4.9907971173524857e-02 -4.9553996324539185e-01</leafValues></_>
        <_>
          <internalNodes>
            0 -1 383 6.2535732984542847e-02</internalNodes>
          <leafValues>
            5.8603953570127487e-02 -4.5668932795524597e-01</leafValues></_>
        <_>
          <internalNodes>
            0 -1 476 4.0522389113903046e-02</internalNodes>
          <leafValues>
            -1.0642272233963013e-01 2.8504273295402527e-01</leafValues></_>
        <_>
          <internalNodes>
            0 -1 515 4.6076136641204357e-03</internalNodes>
          <leafValues>
            -4.2398482561111450e-01 7.2076357901096344e-02</leafValues></_>
        <_>
          <internalNodes>
            0 -1 469 1.2706521153450012e-01</internalNodes>
          <leafValues>
            2.0603673532605171e-02 -9.1697454452514648e-01</leafValues></_>
        <_>
          <internalNodes>
            0 -1 299 5.3680740296840668e-02</internalNodes>
          <leafValues>
            7.5863540172576904e-02 -3.5542982816696167e-01</leafValues></_>
        <_>
          <internalNodes>
            0 -1 759 1.6760408878326416e-01</internalNodes>
          <leafValues>
            2.8615763410925865e-02 -9.0454763174057007e-01</leafValues></_>
        <_>
          <internalNodes>
            0 -1 155 6.4074367284774780e-02</internalNodes>
          <leafValues>
            -6.8481422960758209e-02 4.6702781319618225e-01</leafValues></_>
        <_>
          <internalNodes>
            0 -1 483 9.7596660256385803e-02</internalNodes>
          <leafValues>
            5.1545977592468262e-02 -7.3315292596817017e-01</leafValues></_>
        <_>
          <internalNodes>
            0 -1 31 1.1512985453009605e-02</internalNodes>
          <leafValues>
            2.0265683531761169e-01 -1.4505799114704132e-01</leafValues></_>
        <_>
          <internalNodes>
            0 -1 82 1.8627241253852844e-02</internalNodes>
          <leafValues>
            1.6422896087169647e-01 -1.8198575079441071e-01</leafValues></_>
        <_>
          <internalNodes>
            0 -1 744 4.9479724839329720e-03</internalNodes>
          <leafValues>
            -3.7017863988876343e-01 7.3409602046012878e-02</leafValues></_>
        <_>
          <internalNodes>
            0 -1 731 2.9101534746587276e-03</internalNodes>
          <leafValues>
            -4.6296021342277527e-01 5.4244268685579300e-02</leafValues></_>
        <_>
          <internalNodes>
            0 -1 737 3.0369468033313751e-02</internalNodes>
          <leafValues>
            -1.2905123829841614e-01 2.5047969818115234e-01</leafValues></_>
        <_>
          <internalNodes>
            0 -1 738 5.6157365441322327e-02</internalNodes>
          <leafValues>
            6.4336173236370087e-02 -4.4394052028656006e-01</leafValues></_>
        <_>
          <internalNodes>
            0 -1 590 1.0980775207281113e-01</internalNodes>
          <leafValues>
            3.0054155737161636e-02 -7.3354601860046387e-01</leafValues></_>
        <_>
          <internalNodes>
            0 -1 658 1.2179796397686005e-01</internalNodes>
          <leafValues>
            2.6183323934674263e-02 -7.5071161985397339e-01</leafValues></_>
        <_>
          <internalNodes>
            0 -1 301 4.1497461497783661e-02</internalNodes>
          <leafValues>
            9.6047781407833099e-02 -2.8164801001548767e-01</leafValues></_>
        <_>
          <internalNodes>
            0 -1 122 2.3859623819589615e-02</internalNodes>
          <leafValues>
            -1.1670248955488205e-01 2.3881821334362030e-01</leafValues></_>
        <_>
          <internalNodes>
            0 -1 479 3.4870576113462448e-02</internalNodes>
          <leafValues>
            -8.8936075568199158e-02 3.1863000988960266e-01</leafValues></_>
        <_>
          <internalNodes>
            0 -1 336 5.8171406388282776e-02</internalNodes>
          <leafValues>
            -7.0642992854118347e-02 3.8407117128372192e-01</leafValues></_>
        <_>
          <internalNodes>
            0 -1 144 3.5262508317828178e-03</internalNodes>
          <leafValues>
            -2.6949077844619751e-01 9.9883630871772766e-02</leafValues></_>
        <_>
          <internalNodes>
            0 -1 779 7.0903087034821510e-03</internalNodes>
          <leafValues>
            -2.4638335406780243e-01 9.0144373476505280e-02</leafValues></_>
        <_>
          <internalNodes>
            0 -1 263 6.7220083437860012e-03</internalNodes>
          <leafValues>
            2.4561218917369843e-01 -1.0311672091484070e-01</leafValues></_>
        <_>
          <internalNodes>
            0 -1 111 5.4453559219837189e-02</internalNodes>
          <leafValues>
            -8.0072589218616486e-02 3.2952651381492615e-01</leafValues></_>
        <_>
          <internalNodes>
            0 -1 172 2.2161602973937988e-02</internalNodes>
          <leafValues>
            1.5748694539070129e-01 -1.9123357534408569e-01</leafValues></_>
        <_>
          <internalNodes>
            0 -1 411 4.5929756015539169e-03</internalNodes>
          <leafValues>
            3.3793973922729492e-01 -7.2931028902530670e-02</leafValues></_>
        <_>
          <internalNodes>
            0 -1 348 1.7523403221275657e-04</internalNodes>
          <leafValues>
            -5.7909542322158813e-01 4.7736499458551407e-02</leafValues></_>
        <_>
          <internalNodes>
            0 -1 56 2.5685527361929417e-03</internalNodes>
          <leafValues>
            -4.7125223278999329e-01 3.9443295449018478e-02</leafValues></_>
        <_>
          <internalNodes>
            0 -1 191 1.3941101729869843e-02</internalNodes>
          <leafValues>
            2.1840587258338928e-01 -1.0447812825441360e-01</leafValues></_>
        <_>
          <internalNodes>
            0 -1 822 9.3633115291595459e-02</internalNodes>
          <leafValues>
            3.7155326455831528e-02 -7.1055048704147339e-01</leafValues></_>
        <_>
          <internalNodes>
            0 -1 857 6.9797784090042114e-02</internalNodes>
          <leafValues>
            2.5340741500258446e-02 -7.2009551525115967e-01</leafValues></_>
        <_>
          <internalNodes>
            0 -1 449 1.0172900557518005e-01</internalNodes>
          <leafValues>
            -4.5127578079700470e-02 5.8848816156387329e-01</leafValues></_>
        <_>
          <internalNodes>
            0 -1 654 9.2750206589698792e-02</internalNodes>
          <leafValues>
            4.6823952347040176e-02 -6.9366115331649780e-01</leafValues></_>
        <_>
          <internalNodes>
            0 -1 88 2.0465173292905092e-03</internalNodes>
          <leafValues>
            3.5773548483848572e-01 -7.7878892421722412e-02</leafValues></_>
        <_>
          <internalNodes>
            0 -1 39 9.8847456276416779e-02</internalNodes>
          <leafValues>
            3.1700391322374344e-02 -6.6178607940673828e-01</leafValues></_>
        <_>
          <internalNodes>
            0 -1 18 5.7858206331729889e-02</internalNodes>
          <leafValues>
            -7.1394115686416626e-02 3.6951306462287903e-01</leafValues></_>
        <_>
          <internalNodes>
            0 -1 470 6.0279783792793751e-03</internalNodes>
          <leafValues>
            -2.5668498873710632e-01 9.5492221415042877e-02</leafValues></_>
        <_>
          <internalNodes>
            0 -1 636 1.9766196608543396e-02</internalNodes>
          <leafValues>
            1.6166241466999054e-01 -1.4713431894779205e-01</leafValues></_>
        <_>
          <internalNodes>
            0 -1 837 6.5197283402085304e-03</internalNodes>
          <leafValues>
            -4.6942090988159180e-01 5.2299946546554565e-02</leafValues></_>
        <_>
          <internalNodes>
            0 -1 574 2.2506909444928169e-02</internalNodes>
          <leafValues>
            8.1727363169193268e-02 -2.6414898037910461e-01</leafValues></_>
        <_>
          <internalNodes>
            0 -1 618 1.7133489251136780e-02</internalNodes>
          <leafValues>
            -1.9193200767040253e-01 1.1986723542213440e-01</leafValues></_>
        <_>
          <internalNodes>
            0 -1 295 9.9835984408855438e-02</internalNodes>
          <leafValues>
            -3.5898905247449875e-02 7.1451056003570557e-01</leafValues></_>
        <_>
          <internalNodes>
            0 -1 335 5.7629510760307312e-02</internalNodes>
          <leafValues>
            6.5415263175964355e-02 -4.0371587872505188e-01</leafValues></_>
        <_>
          <internalNodes>
            0 -1 78 1.2597861886024475e-01</internalNodes>
          <leafValues>
            1.8445197492837906e-02 -9.5183986425399780e-01</leafValues></_>
        <_>
          <internalNodes>
            0 -1 797 5.1761090755462646e-02</internalNodes>
          <leafValues>
            -8.8802762329578400e-02 2.7206936478614807e-01</leafValues></_>
        <_>
          <internalNodes>
            0 -1 455 6.8473175168037415e-02</internalNodes>
          <leafValues>
            -4.3575920164585114e-02 4.7805857658386230e-01</leafValues></_>
        <_>
          <internalNodes>
            0 -1 727 1.1084170546382666e-03</internalNodes>
          <leafValues>
            -6.2177056074142456e-01 3.8361199200153351e-02</leafValues></_>
        <_>
          <internalNodes>
            0 -1 31 4.4444371014833450e-03</internalNodes>
          <leafValues>
            3.5876724123954773e-01 -6.6625386476516724e-02</leafValues></_>
        <_>
          <internalNodes>
            0 -1 672 6.0070961713790894e-02</internalNodes>
          <leafValues>
            -5.8315530419349670e-02 3.5436367988586426e-01</leafValues></_>
        <_>
          <internalNodes>
            0 -1 328 6.0442395508289337e-02</internalNodes>
          <leafValues>
            8.8968001306056976e-02 -2.9191043972969055e-01</leafValues></_>
        <_>
          <internalNodes>
            0 -1 167 3.6294395104050636e-03</internalNodes>
          <leafValues>
            -3.2317638397216797e-01 7.0621006190776825e-02</leafValues></_>
        <_>
          <internalNodes>
            0 -1 808 7.2988439351320267e-03</internalNodes>
          <leafValues>
            4.4209459424018860e-01 -5.4218146950006485e-02</leafValues></_>
        <_>
          <internalNodes>
            0 -1 632 6.7941145971417427e-03</internalNodes>
          <leafValues>
            -3.2546284794807434e-01 7.2241730988025665e-02</leafValues></_>
        <_>
          <internalNodes>
            0 -1 649 3.3986368216574192e-03</internalNodes>
          <leafValues>
            -6.2246036529541016e-01 3.3670332282781601e-02</leafValues></_>
        <_>
          <internalNodes>
            0 -1 16 1.4029015600681305e-01</internalNodes>
          <leafValues>
            2.5523329153656960e-02 -7.3039799928665161e-01</leafValues></_>
        <_>
          <internalNodes>
            0 -1 382 1.2362228706479073e-02</internalNodes>
          <leafValues>
            1.1734706163406372e-01 -1.7914116382598877e-01</leafValues></_>
        <_>
          <internalNodes>
            0 -1 435 3.6303199827671051e-02</internalNodes>
          <leafValues>
            8.2779996097087860e-02 -2.7696642279624939e-01</leafValues></_>
        <_>
          <internalNodes>
            0 -1 469 1.0304868221282959e-01</internalNodes>
          <leafValues>
            2.7183035388588905e-02 -7.8232198953628540e-01</leafValues></_>
        <_>
          <internalNodes>
            0 -1 230 8.4576196968555450e-03</internalNodes>
          <leafValues>
            -2.3611709475517273e-01 8.1930443644523621e-02</leafValues></_></weakClassifiers></_>
    <!-- stage 4 -->
    <_>
      <maxWeakCount>89</maxWeakCount>
      <stageThreshold>-1.1199722290039062e+00</stageThreshold>
      <weakClassifiers>
        <_>
          <internalNodes>
            0 -1 732 1.9974038004875183e-02</internalNodes>
          <leafValues>
            -5.1740509271621704e-01 -6.0410555452108383e-02</leafValues></_>
        <_>
          <internalNodes>
            0 -1 863 3.4976020455360413e-02</internalNodes>
          <leafValues>
            1.5118148922920227e-01 -3.6546254158020020e-01</leafValues></_>
        <_>
          <internalNodes>
            0 -1 614 1.0935853421688080e-01</internalNodes>
          <leafValues>
            4.9078192561864853e-02 -9.3853271007537842e-01</leafValues></_>
        <_>
          <internalNodes>
            0 -1 694 3.8629136979579926e-02</internalNodes>
          <leafValues>
            1.1975277960300446e-01 -3.6493059992790222e-01</leafValues></_>
        <_>
          <internalNodes>
            0 -1 761 7.8039735555648804e-02</internalNodes>
          <leafValues>
            6.8067826330661774e-02 -6.0695016384124756e-01</leafValues></_>
        <_>
          <internalNodes>
            0 -1 734 1.6820877790451050e-02</internalNodes>
          <leafValues>
            1.4396734535694122e-01 -2.7645075321197510e-01</leafValues></_>
        <_>
          <internalNodes>
            0 -1 265 2.8066974133253098e-02</internalNodes>
          <leafValues>
            -1.2467307597398758e-01 2.9432865977287292e-01</leafValues></_>
        <_>
          <internalNodes>
            0 -1 482 3.1546708196401596e-02</internalNodes>
          <leafValues>
            1.3063636422157288e-01 -3.0609551072120667e-01</leafValues></_>
        <_>
          <internalNodes>
            0 -1 484 9.7346112132072449e-02</internalNodes>
          <leafValues>
            5.3493477404117584e-02 -6.8885886669158936e-01</leafValues></_>
        <_>
          <internalNodes>
            0 -1 472 1.4978873729705811e-01</internalNodes>
          <leafValues>
            2.0565040409564972e-02 -9.8871445655822754e-01</leafValues></_>
        <_>
          <internalNodes>
            0 -1 323 4.7670088708400726e-02</internalNodes>
          <leafValues>
            -1.0137376189231873e-01 4.4012349843978882e-01</leafValues></_>
        <_>
          <internalNodes>
            0 -1 596 1.5021979808807373e-02</internalNodes>
          <leafValues>
            -2.2464443743228912e-01 1.5331235527992249e-01</leafValues></_>
        <_>
          <internalNodes>
            0 -1 725 2.6792190968990326e-02</internalNodes>
          <leafValues>
            1.2524960935115814e-01 -3.2538574934005737e-01</leafValues></_>
        <_>
          <internalNodes>
            0 -1 648 7.9368039965629578e-02</internalNodes>
          <leafValues>
            -5.3404260426759720e-02 8.3025985956192017e-01</leafValues></_>
        <_>
          <internalNodes>
            0 -1 36 9.5478236675262451e-02</internalNodes>
          <leafValues>
            -4.8913188278675079e-02 5.2421998977661133e-01</leafValues></_>
        <_>
          <internalNodes>
            0 -1 425 2.0054213702678680e-02</internalNodes>
          <leafValues>
            1.4538492262363434e-01 -1.8985028564929962e-01</leafValues></_>
        <_>
          <internalNodes>
            0 -1 84 2.4221897125244141e-02</internalNodes>
          <leafValues>
            -1.4682538807392120e-01 2.3313912749290466e-01</leafValues></_>
        <_>
          <internalNodes>
            0 -1 430 4.2284533381462097e-02</internalNodes>
          <leafValues>
            -8.8264711201190948e-02 3.3496823906898499e-01</leafValues></_>
        <_>
          <internalNodes>
            0 -1 688 5.2613681182265282e-03</internalNodes>
          <leafValues>
            -2.8742000460624695e-01 1.0750432312488556e-01</leafValues></_>
        <_>
          <internalNodes>
            0 -1 472 6.6434085369110107e-02</internalNodes>
          <leafValues>
            6.2158100306987762e-02 -5.4988718032836914e-01</leafValues></_>
        <_>
          <internalNodes>
            0 -1 6 1.6083993017673492e-02</internalNodes>
          <leafValues>
            1.6147813200950623e-01 -2.3639680445194244e-01</leafValues></_>
        <_>
          <internalNodes>
            0 -1 862 7.5022750534117222e-03</internalNodes>
          <leafValues>
            -5.1143461465835571e-01 5.7390231639146805e-02</leafValues></_>
        <_>
          <internalNodes>
            0 -1 723 2.9685150366276503e-03</internalNodes>
          <leafValues>
            -4.7186172008514404e-01 4.3965682387351990e-02</leafValues></_>
        <_>
          <internalNodes>
            0 -1 64 6.9689273834228516e-02</internalNodes>
          <leafValues>
            -7.2015464305877686e-02 4.4359293580055237e-01</leafValues></_>
        <_>
          <internalNodes>
            0 -1 769 2.6527762413024902e-02</internalNodes>
          <leafValues>
            1.2704926729202271e-01 -2.4090929329395294e-01</leafValues></_>
        <_>
          <internalNodes>
            0 -1 568 7.1178555488586426e-02</internalNodes>
          <leafValues>
            6.4651355147361755e-02 -4.1720521450042725e-01</leafValues></_>
        <_>
          <internalNodes>
            0 -1 439 1.8956085667014122e-02</internalNodes>
          <leafValues>
            1.8168963491916656e-01 -1.4696426689624786e-01</leafValues></_>
        <_>
          <internalNodes>
            0 -1 857 5.1647119224071503e-02</internalNodes>
          <leafValues>
            4.9264442175626755e-02 -5.4535567760467529e-01</leafValues></_>
        <_>
          <internalNodes>
            0 -1 855 4.4864760711789131e-03</internalNodes>
          <leafValues>
            -5.1703602075576782e-01 4.0649831295013428e-02</leafValues></_>
        <_>
          <internalNodes>
            0 -1 712 3.4990713000297546e-02</internalNodes>
          <leafValues>
            -7.3672227561473846e-02 3.6754941940307617e-01</leafValues></_>
        <_>
          <internalNodes>
            0 -1 207 2.7932863682508469e-02</internalNodes>
          <leafValues>
            1.0912303626537323e-01 -2.1216540038585663e-01</leafValues></_>
        <_>
          <internalNodes>
            0 -1 280 2.9495928436517715e-02</internalNodes>
          <leafValues>
            -8.0922186374664307e-02 3.0986994504928589e-01</leafValues></_>
        <_>
          <internalNodes>
            0 -1 463 5.4368160665035248e-02</internalNodes>
          <leafValues>
            6.9534175097942352e-02 -3.6376029253005981e-01</leafValues></_>
        <_>
          <internalNodes>
            0 -1 181 1.0646907612681389e-03</internalNodes>
          <leafValues>
            -5.5873823165893555e-01 4.0343545377254486e-02</leafValues></_>
        <_>
          <internalNodes>
            0 -1 807 4.9747675657272339e-03</internalNodes>
          <leafValues>
            -4.5531052350997925e-01 4.5268360525369644e-02</leafValues></_>
        <_>
          <internalNodes>
            0 -1 705 7.3434591293334961e-02</internalNodes>
          <leafValues>
            2.9304515570402145e-02 -6.4751625061035156e-01</leafValues></_>
        <_>
          <internalNodes>
            0 -1 12 8.6711332201957703e-02</internalNodes>
          <leafValues>
            -4.1441738605499268e-02 6.3870269060134888e-01</leafValues></_>
        <_>
          <internalNodes>
            0 -1 663 6.4523138105869293e-02</internalNodes>
          <leafValues>
            3.9356719702482224e-02 -6.5910214185714722e-01</leafValues></_>
        <_>
          <internalNodes>
            0 -1 361 3.8618609309196472e-02</internalNodes>
          <leafValues>
            8.2919880747795105e-02 -2.8769308328628540e-01</leafValues></_>
        <_>
          <internalNodes>
            0 -1 40 1.3589945435523987e-01</internalNodes>
          <leafValues>
            2.4562885984778404e-02 -8.8521260023117065e-01</leafValues></_>
        <_>
          <internalNodes>
            0 -1 740 1.1626111343502998e-02</internalNodes>
          <leafValues>
            1.5598951280117035e-01 -1.6417612135410309e-01</leafValues></_>
        <_>
          <internalNodes>
            0 -1 737 1.0531751438975334e-02</internalNodes>
          <leafValues>
            -2.1818821132183075e-01 1.1906146258115768e-01</leafValues></_>
        <_>
          <internalNodes>
            0 -1 738 6.9504246115684509e-02</internalNodes>
          <leafValues>
            5.3038638085126877e-02 -4.7823226451873779e-01</leafValues></_>
        <_>
          <internalNodes>
            0 -1 86 9.7773492336273193e-02</internalNodes>
          <leafValues>
            -5.7079989463090897e-02 5.1281303167343140e-01</leafValues></_>
        <_>
          <internalNodes>
            0 -1 633 3.2826866954565048e-02</internalNodes>
          <leafValues>
            -7.5577221810817719e-02 3.1406354904174805e-01</leafValues></_>
        <_>
          <internalNodes>
            0 -1 125 1.4642672613263130e-04</internalNodes>
          <leafValues>
            -4.3663218617439270e-01 5.7167917490005493e-02</leafValues></_>
        <_>
          <internalNodes>
            0 -1 81 5.7744864374399185e-02</internalNodes>
          <leafValues>
            -6.2916666269302368e-02 4.0371575951576233e-01</leafValues></_>
        <_>
          <internalNodes>
            0 -1 406 9.0252235531806946e-02</internalNodes>
          <leafValues>
            5.0406284630298615e-02 -5.4546445608139038e-01</leafValues></_>
        <_>
          <internalNodes>
            0 -1 104 8.5807312279939651e-03</internalNodes>
          <leafValues>
            1.7313267290592194e-01 -1.3034804165363312e-01</leafValues></_>
        <_>
          <internalNodes>
            0 -1 509 4.8249788582324982e-02</internalNodes>
          <leafValues>
            -5.6142501533031464e-02 4.4598299264907837e-01</leafValues></_>
        <_>
          <internalNodes>
            0 -1 467 6.5757911652326584e-03</internalNodes>
          <leafValues>
            2.0585520565509796e-01 -1.1347245424985886e-01</leafValues></_>
        <_>
          <internalNodes>
            0 -1 573 2.9058191925287247e-02</internalNodes>
          <leafValues>
            -9.7600944340229034e-02 2.9882821440696716e-01</leafValues></_>
        <_>
          <internalNodes>
            0 -1 682 1.4922816306352615e-02</internalNodes>
          <leafValues>
            -2.2090041637420654e-01 1.1676873266696930e-01</leafValues></_>
        <_>
          <internalNodes>
            0 -1 397 4.3354630470275879e-03</internalNodes>
          <leafValues>
            3.6915549635887146e-01 -7.1726232767105103e-02</leafValues></_>
        <_>
          <internalNodes>
            0 -1 656 3.1180886551737785e-02</internalNodes>
          <leafValues>
            8.5442192852497101e-02 -3.1941020488739014e-01</leafValues></_>
        <_>
          <internalNodes>
            0 -1 551 9.2699036002159119e-02</internalNodes>
          <leafValues>
            2.2268302738666534e-02 -9.2301034927368164e-01</leafValues></_>
        <_>
          <internalNodes>
            0 -1 410 8.3848938345909119e-02</internalNodes>
          <leafValues>
            2.6039592921733856e-02 -6.0898697376251221e-01</leafValues></_>
        <_>
          <internalNodes>
            0 -1 717 2.1384198218584061e-02</internalNodes>
          <leafValues>
            -1.5355660021305084e-01 1.4733803272247314e-01</leafValues></_>
        <_>
          <internalNodes>
            0 -1 654 2.6751773431897163e-02</internalNodes>
          <leafValues>
            1.2874679267406464e-01 -1.9109852612018585e-01</leafValues></_>
        <_>
          <internalNodes>
            0 -1 816 9.5575181767344475e-03</internalNodes>
          <leafValues>
            -2.9136499762535095e-01 7.8184299170970917e-02</leafValues></_>
        <_>
          <internalNodes>
            0 -1 540 5.1852479577064514e-02</internalNodes>
          <leafValues>
            -7.0994988083839417e-02 3.2921308279037476e-01</leafValues></_>
        <_>
          <internalNodes>
            0 -1 446 2.8280139667913318e-04</internalNodes>
          <leafValues>
            -4.6458372473716736e-01 5.1510065793991089e-02</leafValues></_>
        <_>
          <internalNodes>
            0 -1 507 7.5158856809139252e-02</internalNodes>
          <leafValues>
            -4.3335333466529846e-02 5.5663454532623291e-01</leafValues></_>
        <_>
          <internalNodes>
            0 -1 48 1.4875652268528938e-02</internalNodes>
          <leafValues>
            1.5818342566490173e-01 -1.2416163086891174e-01</leafValues></_>
        <_>
          <internalNodes>
            0 -1 363 2.0041354000568390e-03</internalNodes>
          <leafValues>
            -3.5952886939048767e-01 5.9540931135416031e-02</leafValues></_>
        <_>
          <internalNodes>
            0 -1 797 6.9509468972682953e-02</internalNodes>
          <leafValues>
            -6.0681421309709549e-02 4.1244339942932129e-01</leafValues></_>
        <_>
          <internalNodes>
            0 -1 733 2.7664637193083763e-02</internalNodes>
          <leafValues>
            -1.2577894330024719e-01 2.5154551863670349e-01</leafValues></_>
        <_>
          <internalNodes>
            0 -1 579 3.6634013056755066e-02</internalNodes>
          <leafValues>
            8.3313561975955963e-02 -3.0143356323242188e-01</leafValues></_>
        <_>
          <internalNodes>
            0 -1 28 8.7573863565921783e-03</internalNodes>
          <leafValues>
            -1.8718773126602173e-01 1.4146405458450317e-01</leafValues></_>
        <_>
          <internalNodes>
            0 -1 845 4.7858357429504395e-02</internalNodes>
          <leafValues>
            -7.7999249100685120e-02 3.1345465779304504e-01</leafValues></_>
        <_>
          <internalNodes>
            0 -1 512 5.4852040484547615e-03</internalNodes>
          <leafValues>
            -3.4396225214004517e-01 8.1474132835865021e-02</leafValues></_>
        <_>
          <internalNodes>
            0 -1 830 1.8105503171682358e-02</internalNodes>
          <leafValues>
            1.3297137618064880e-01 -1.8458493053913116e-01</leafValues></_>
        <_>
          <internalNodes>
            0 -1 121 3.8165830075740814e-02</internalNodes>
          <leafValues>
            -7.1204945445060730e-02 4.3578246235847473e-01</leafValues></_>
        <_>
          <internalNodes>
            0 -1 184 4.6417545527219772e-03</internalNodes>
          <leafValues>
            -3.1589436531066895e-01 8.9127331972122192e-02</leafValues></_>
        <_>
          <internalNodes>
            0 -1 157 8.5290092974901199e-03</internalNodes>
          <leafValues>
            1.7502962052822113e-01 -1.3017517328262329e-01</leafValues></_>
        <_>
          <internalNodes>
            0 -1 641 5.2262470126152039e-03</internalNodes>
          <leafValues>
            -3.3900469541549683e-01 7.5956836342811584e-02</leafValues></_>
        <_>
          <internalNodes>
            0 -1 658 1.2433168292045593e-01</internalNodes>
          <leafValues>
            2.6756225153803825e-02 -7.6021558046340942e-01</leafValues></_>
        <_>
          <internalNodes>
            0 -1 32 7.2298318147659302e-02</internalNodes>
          <leafValues>
            3.5948816686868668e-02 -4.7421208024024963e-01</leafValues></_>
        <_>
          <internalNodes>
            0 -1 796 2.8835341800004244e-03</internalNodes>
          <leafValues>
            3.4880876541137695e-01 -6.9917187094688416e-02</leafValues></_>
        <_>
          <internalNodes>
            0 -1 370 8.7918955832719803e-03</internalNodes>
          <leafValues>
            -2.2789680957794189e-01 9.6583336591720581e-02</leafValues></_>
        <_>
          <internalNodes>
            0 -1 714 5.5599719285964966e-02</internalNodes>
          <leafValues>
            -6.6245734691619873e-02 3.6551418900489807e-01</leafValues></_>
        <_>
          <internalNodes>
            0 -1 377 2.2689778357744217e-02</internalNodes>
          <leafValues>
            9.4579033553600311e-02 -2.5316852331161499e-01</leafValues></_>
        <_>
          <internalNodes>
            0 -1 793 6.2228281050920486e-02</internalNodes>
          <leafValues>
            5.6925576180219650e-02 -3.7451466917991638e-01</leafValues></_>
        <_>
          <internalNodes>
            0 -1 470 4.4670386705547571e-04</internalNodes>
          <leafValues>
            -6.7540615797042847e-01 3.0179463326931000e-02</leafValues></_>
        <_>
          <internalNodes>
            0 -1 479 5.5640894919633865e-02</internalNodes>
          <leafValues>
            -6.1696846038103104e-02 4.1017758846282959e-01</leafValues></_>
        <_>
          <internalNodes>
            0 -1 860 4.1140336543321609e-03</internalNodes>
          <leafValues>
            -6.2232786417007446e-01 3.6558598279953003e-02</leafValues></_>
        <_>
          <internalNodes>
            0 -1 598 8.4579400718212128e-03</internalNodes>
          <leafValues>
            2.8741580247879028e-01 -8.3347253501415253e-02</leafValues></_>
        <_>
          <internalNodes>
            0 -1 390 4.4855643063783646e-03</internalNodes>
          <leafValues>
            2.2952528297901154e-01 -1.0198620706796646e-01</leafValues></_>
        <_>
          <internalNodes>
            0 -1 677 5.8146771043539047e-03</internalNodes>
          <leafValues>
            -2.8908583521842957e-01 7.6084345579147339e-02</leafValues></_></weakClassifiers></_>
    <!-- stage 5 -->
    <_>
      <maxWeakCount>66</maxWeakCount>
      <stageThreshold>-1.0953527688980103e+00</stageThreshold>
      <weakClassifiers>
        <_>
          <internalNodes>
            0 -1 673 1.5417025424540043e-02</internalNodes>
          <leafValues>
            -6.5829694271087646e-01 -8.5381090641021729e-02</leafValues></_>
        <_>
          <internalNodes>
            0 -1 409 6.9954261183738708e-02</internalNodes>
          <leafValues>
            1.0693859308958054e-01 -5.9590560197830200e-01</leafValues></_>
        <_>
          <internalNodes>
            0 -1 586 1.6732074320316315e-02</internalNodes>
          <leafValues>
            2.4206231534481049e-01 -3.6187040805816650e-01</leafValues></_>
        <_>
          <internalNodes>
            0 -1 591 1.3821395114064217e-02</internalNodes>
          <leafValues>
            -2.3290570080280304e-01 2.2387601435184479e-01</leafValues></_>
        <_>
          <internalNodes>
            0 -1 609 2.9146637767553329e-02</internalNodes>
          <leafValues>
            1.4527097344398499e-01 -3.2371950149536133e-01</leafValues></_>
        <_>
          <internalNodes>
            0 -1 861 7.6013967394828796e-02</internalNodes>
          <leafValues>
            9.8682485520839691e-02 -5.0894623994827271e-01</leafValues></_>
        <_>
          <internalNodes>
            0 -1 700 3.2680188305675983e-03</internalNodes>
          <leafValues>
            -5.6980735063552856e-01 6.3442140817642212e-02</leafValues></_>
        <_>
          <internalNodes>
            0 -1 349 3.1664431095123291e-02</internalNodes>
          <leafValues>
            -1.4393585920333862e-01 3.2074505090713501e-01</leafValues></_>
        <_>
          <internalNodes>
            0 -1 452 4.7012642025947571e-02</internalNodes>
          <leafValues>
            1.1643484979867935e-01 -4.2064169049263000e-01</leafValues></_>
        <_>
          <internalNodes>
            0 -1 753 4.5613124966621399e-02</internalNodes>
          <leafValues>
            -1.0464977473020554e-01 4.9896472692489624e-01</leafValues></_>
        <_>
          <internalNodes>
            0 -1 830 3.7391223013401031e-02</internalNodes>
          <leafValues>
            7.6683104038238525e-02 -4.2156267166137695e-01</leafValues></_>
        <_>
          <internalNodes>
            0 -1 148 8.8514387607574463e-03</internalNodes>
          <leafValues>
            -2.7013120055198669e-01 1.5551795065402985e-01</leafValues></_>
        <_>
          <internalNodes>
            0 -1 91 6.7262034863233566e-03</internalNodes>
          <leafValues>
            3.4039622545242310e-01 -1.2114135921001434e-01</leafValues></_>
        <_>
          <internalNodes>
            0 -1 111 8.6066983640193939e-02</internalNodes>
          <leafValues>
            -5.4214861243963242e-02 5.7604545354843140e-01</leafValues></_>
        <_>
          <internalNodes>
            0 -1 664 6.8780049681663513e-02</internalNodes>
          <leafValues>
            5.5557765066623688e-02 -6.0470414161682129e-01</leafValues></_>
        <_>
          <internalNodes>
            0 -1 824 3.5252547822892666e-03</internalNodes>
          <leafValues>
            -7.6511418819427490e-01 3.7394117563962936e-02</leafValues></_>
        <_>
          <internalNodes>
            0 -1 749 3.8343328982591629e-02</internalNodes>
          <leafValues>
            1.0607045888900757e-01 -2.7386036515235901e-01</leafValues></_>
        <_>
          <internalNodes>
            0 -1 472 1.1440171301364899e-01</internalNodes>
          <leafValues>
            2.5848645716905594e-02 -8.5991728305816650e-01</leafValues></_>
        <_>
          <internalNodes>
            0 -1 226 2.9132837429642677e-02</internalNodes>
          <leafValues>
            -1.3368229568004608e-01 2.7639368176460266e-01</leafValues></_>
        <_>
          <internalNodes>
            0 -1 762 4.0458090603351593e-02</internalNodes>
          <leafValues>
            1.1858642846345901e-01 -3.1985554099082947e-01</leafValues></_>
        <_>
          <internalNodes>
            0 -1 717 4.6837171539664268e-03</internalNodes>
          <leafValues>
            -5.1411831378936768e-01 6.0631152242422104e-02</leafValues></_>
        <_>
          <internalNodes>
            0 -1 469 8.9398436248302460e-02</internalNodes>
          <leafValues>
            3.2420940697193146e-02 -7.3601675033569336e-01</leafValues></_>
        <_>
          <internalNodes>
            0 -1 158 7.1578389033675194e-03</internalNodes>
          <leafValues>
            2.0606209337711334e-01 -1.4012795686721802e-01</leafValues></_>
        <_>
          <internalNodes>
            0 -1 514 4.3329492211341858e-02</internalNodes>
          <leafValues>
            -7.6328031718730927e-02 3.8467282056808472e-01</leafValues></_>
        <_>
          <internalNodes>
            0 -1 651 2.0192466676235199e-02</internalNodes>
          <leafValues>
            -1.4551636576652527e-01 2.1759586036205292e-01</leafValues></_>
        <_>
          <internalNodes>
            0 -1 846 5.1192725077271461e-03</internalNodes>
          <leafValues>
            -6.8183088302612305e-01 4.2691335082054138e-02</leafValues></_>
        <_>
          <internalNodes>
            0 -1 521 3.0729893594980240e-02</internalNodes>
          <leafValues>
            1.4143042266368866e-01 -1.9400365650653839e-01</leafValues></_>
        <_>
          <internalNodes>
            0 -1 541 4.0282364934682846e-02</internalNodes>
          <leafValues>
            -1.1204618215560913e-01 2.8703001141548157e-01</leafValues></_>
        <_>
          <internalNodes>
            0 -1 75 7.2233756072819233e-03</internalNodes>
          <leafValues>
            -2.6329791545867920e-01 1.0120965540409088e-01</leafValues></_>
        <_>
          <internalNodes>
            0 -1 327 5.3629279136657715e-02</internalNodes>
          <leafValues>
            -7.8327514231204987e-02 3.7219217419624329e-01</leafValues></_>
        <_>
          <internalNodes>
            0 -1 424 3.7771895527839661e-02</internalNodes>
          <leafValues>
            9.7490653395652771e-02 -3.2555183768272400e-01</leafValues></_>
        <_>
          <internalNodes>
            0 -1 800 9.6960514783859253e-02</internalNodes>
          <leafValues>
            3.1998507678508759e-02 -7.6388752460479736e-01</leafValues></_>
        <_>
          <internalNodes>
            0 -1 209 2.1568777039647102e-02</internalNodes>
          <leafValues>
            9.5168568193912506e-02 -2.7971699833869934e-01</leafValues></_>
        <_>
          <internalNodes>
            0 -1 7 5.0919363275170326e-03</internalNodes>
          <leafValues>
            -3.3003187179565430e-01 7.9845719039440155e-02</leafValues></_>
        <_>
          <internalNodes>
            0 -1 81 6.4317740499973297e-02</internalNodes>
          <leafValues>
            -6.6629007458686829e-02 4.3698543310165405e-01</leafValues></_>
        <_>
          <internalNodes>
            0 -1 118 4.9660285003483295e-03</internalNodes>
          <leafValues>
            -3.1489470601081848e-01 9.2749819159507751e-02</leafValues></_>
        <_>
          <internalNodes>
            0 -1 103 2.5659970939159393e-02</internalNodes>
          <leafValues>
            9.9888361990451813e-02 -3.2113575935363770e-01</leafValues></_>
        <_>
          <internalNodes>
            0 -1 366 1.4444146654568613e-04</internalNodes>
          <leafValues>
            -7.9148077964782715e-01 2.9527608305215836e-02</leafValues></_>
        <_>
          <internalNodes>
            0 -1 573 3.6230906844139099e-02</internalNodes>
          <leafValues>
            -8.6323767900466919e-02 3.6330738663673401e-01</leafValues></_>
        <_>
          <internalNodes>
            0 -1 592 1.9969422370195389e-02</internalNodes>
          <leafValues>
            -2.0049767196178436e-01 1.5044586360454559e-01</leafValues></_>
        <_>
          <internalNodes>
            0 -1 176 5.3400669246912003e-02</internalNodes>
          <leafValues>
            -6.1616178601980209e-02 5.1718831062316895e-01</leafValues></_>
        <_>
          <internalNodes>
            0 -1 162 5.2098892629146576e-03</internalNodes>
          <leafValues>
            2.8952360153198242e-01 -1.0118187963962555e-01</leafValues></_>
        <_>
          <internalNodes>
            0 -1 803 8.3169192075729370e-02</internalNodes>
          <leafValues>
            4.6309538185596466e-02 -6.3108235597610474e-01</leafValues></_>
        <_>
          <internalNodes>
            0 -1 343 8.4391266107559204e-02</internalNodes>
          <leafValues>
            4.5542802661657333e-02 -5.5652338266372681e-01</leafValues></_>
        <_>
          <internalNodes>
            0 -1 312 1.5298716025426984e-03</internalNodes>
          <leafValues>
            -6.0895127058029175e-01 4.0070526301860809e-02</leafValues></_>
        <_>
          <internalNodes>
            0 -1 143 1.7767257988452911e-01</internalNodes>
          <leafValues>
            2.3430023342370987e-02 -9.4440752267837524e-01</leafValues></_>
        <_>
          <internalNodes>
            0 -1 578 2.8285642620176077e-03</internalNodes>
          <leafValues>
            5.3633189201354980e-01 -5.8439068496227264e-02</leafValues></_>
        <_>
          <internalNodes>
            0 -1 834 3.5656083375215530e-02</internalNodes>
          <leafValues>
            8.2279995083808899e-02 -3.2265949249267578e-01</leafValues></_>
        <_>
          <internalNodes>
            0 -1 606 8.6148558184504509e-03</internalNodes>
          <leafValues>
            -2.8733581304550171e-01 9.2093288898468018e-02</leafValues></_>
        <_>
          <internalNodes>
            0 -1 672 3.6708340048789978e-02</internalNodes>
          <leafValues>
            -1.0610572993755341e-01 2.4330356717109680e-01</leafValues></_>
        <_>
          <internalNodes>
            0 -1 778 1.2215976603329182e-03</internalNodes>
          <leafValues>
            -8.1278318166732788e-01 3.4163851290941238e-02</leafValues></_>
        <_>
          <internalNodes>
            0 -1 454 2.9957753419876099e-01</internalNodes>
          <leafValues>
            1.8550436943769455e-02 -9.5963829755783081e-01</leafValues></_>
        <_>
          <internalNodes>
            0 -1 719 5.0841444171965122e-03</internalNodes>
          <leafValues>
            -3.4957551956176758e-01 6.7453652620315552e-02</leafValues></_>
        <_>
          <internalNodes>
            0 -1 500 1.1201847344636917e-02</internalNodes>
          <leafValues>
            -1.9067482650279999e-01 1.7050746083259583e-01</leafValues></_>
        <_>
          <internalNodes>
            0 -1 150 4.0654748678207397e-02</internalNodes>
          <leafValues>
            1.0166811943054199e-01 -3.0184376239776611e-01</leafValues></_>
        <_>
          <internalNodes>
            0 -1 154 8.4669202566146851e-02</internalNodes>
          <leafValues>
            -5.0892043858766556e-02 5.8651459217071533e-01</leafValues></_>
        <_>
          <internalNodes>
            0 -1 297 1.2166162021458149e-02</internalNodes>
          <leafValues>
            2.1549125015735626e-01 -1.2032184004783630e-01</leafValues></_>
        <_>
          <internalNodes>
            0 -1 429 1.0616523027420044e-01</internalNodes>
          <leafValues>
            -4.9422729760408401e-02 5.7717609405517578e-01</leafValues></_>
        <_>
          <internalNodes>
            0 -1 785 4.6045757830142975e-02</internalNodes>
          <leafValues>
            -5.1426775753498077e-02 4.5753791928291321e-01</leafValues></_>
        <_>
          <internalNodes>
            0 -1 663 1.5741374343633652e-02</internalNodes>
          <leafValues>
            1.4064437150955200e-01 -1.8984049558639526e-01</leafValues></_>
        <_>
          <internalNodes>
            0 -1 38 1.2668577255681157e-03</internalNodes>
          <leafValues>
            -5.7205450534820557e-01 4.3809324502944946e-02</leafValues></_>
        <_>
          <internalNodes>
            0 -1 748 4.0861755609512329e-02</internalNodes>
          <leafValues>
            8.1221148371696472e-02 -3.0898234248161316e-01</leafValues></_>
        <_>
          <internalNodes>
            0 -1 630 7.4104210361838341e-03</internalNodes>
          <leafValues>
            -3.9710164070129395e-01 7.5154490768909454e-02</leafValues></_>
        <_>
          <internalNodes>
            0 -1 188 3.6713287234306335e-02</internalNodes>
          <leafValues>
            -8.0625370144844055e-02 3.5450929403305054e-01</leafValues></_>
        <_>
          <internalNodes>
            0 -1 22 3.6742955446243286e-02</internalNodes>
          <leafValues>
            1.0720307379961014e-01 -2.5146910548210144e-01</leafValues></_>
        <_>
          <internalNodes>
            0 -1 472 8.5399486124515533e-03</internalNodes>
          <leafValues>
            -2.4215345084667206e-01 1.3708776235580444e-01</leafValues></_></weakClassifiers></_>
    <!-- stage 6 -->
    <_>
      <maxWeakCount>93</maxWeakCount>
      <stageThreshold>-9.6101188659667969e-01</stageThreshold>
      <weakClassifiers>
        <_>
          <internalNodes>
            0 -1 374 9.9349934607744217e-03</internalNodes>
          <leafValues>
            -5.1146384328603745e-02 -5.2290678024291992e-01</leafValues></_>
        <_>
          <internalNodes>
            0 -1 482 3.8143113255500793e-02</internalNodes>
          <leafValues>
            1.0778879374265671e-01 -4.4096603989601135e-01</leafValues></_>
        <_>
          <internalNodes>
            0 -1 541 3.0343374237418175e-02</internalNodes>
          <leafValues>
            -1.6956861317157745e-01 2.8256291151046753e-01</leafValues></_>
        <_>
          <internalNodes>
            0 -1 642 2.0492695271968842e-02</internalNodes>
          <leafValues>
            -2.4633878469467163e-01 1.9195947051048279e-01</leafValues></_>
        <_>
          <internalNodes>
            0 -1 651 3.5771720111370087e-02</internalNodes>
          <leafValues>
            -8.4974601864814758e-02 3.8958099484443665e-01</leafValues></_>
        <_>
          <internalNodes>
            0 -1 836 1.2657223269343376e-02</internalNodes>
          <leafValues>
            -1.9368468225002289e-01 1.7769104242324829e-01</leafValues></_>
        <_>
          <internalNodes>
            0 -1 736 3.7412643432617188e-02</internalNodes>
          <leafValues>
            -1.2793764472007751e-01 2.4842897057533264e-01</leafValues></_>
        <_>
          <internalNodes>
            0 -1 58 5.2894867956638336e-02</internalNodes>
          <leafValues>
            9.9435411393642426e-02 -4.3725758790969849e-01</leafValues></_>
        <_>
          <internalNodes>
            0 -1 504 3.0578628182411194e-02</internalNodes>
          <leafValues>
            8.7780028581619263e-02 -3.2416209578514099e-01</leafValues></_>
        <_>
          <internalNodes>
            0 -1 436 1.8176886439323425e-01</internalNodes>
          <leafValues>
            3.8133401423692703e-02 -9.4196110963821411e-01</leafValues></_>
        <_>
          <internalNodes>
            0 -1 573 5.9048984199762344e-02</internalNodes>
          <leafValues>
            -6.2081843614578247e-02 5.5495214462280273e-01</leafValues></_>
        <_>
          <internalNodes>
            0 -1 22 2.6082318276166916e-02</internalNodes>
          <leafValues>
            1.4665664732456207e-01 -1.7629934847354889e-01</leafValues></_>
        <_>
          <internalNodes>
            0 -1 474 3.0989125370979309e-03</internalNodes>
          <leafValues>
            3.9701262116432190e-01 -7.4059627950191498e-02</leafValues></_>
        <_>
          <internalNodes>
            0 -1 607 1.1824128217995167e-02</internalNodes>
          <leafValues>
            -1.9104488193988800e-01 1.3756285607814789e-01</leafValues></_>
        <_>
          <internalNodes>
            0 -1 675 1.9698934629559517e-02</internalNodes>
          <leafValues>
            1.1718816310167313e-01 -2.2717875242233276e-01</leafValues></_>
        <_>
          <internalNodes>
            0 -1 501 2.2928596008569002e-03</internalNodes>
          <leafValues>
            -5.8602559566497803e-01 3.6793243139982224e-02</leafValues></_>
        <_>
          <internalNodes>
            0 -1 615 1.4424464106559753e-01</internalNodes>
          <leafValues>
            2.1907834336161613e-02 -9.1670662164688110e-01</leafValues></_>
        <_>
          <internalNodes>
            0 -1 670 5.1418654620647430e-03</internalNodes>
          <leafValues>
            3.0871051549911499e-01 -9.2244856059551239e-02</leafValues></_>
        <_>
          <internalNodes>
            0 -1 581 5.6309930980205536e-02</internalNodes>
          <leafValues>
            -7.8429162502288818e-02 2.9963591694831848e-01</leafValues></_>
        <_>
          <internalNodes>
            0 -1 855 5.1543731242418289e-03</internalNodes>
          <leafValues>
            -4.9138757586479187e-01 5.8285467326641083e-02</leafValues></_>
        <_>
          <internalNodes>
            0 -1 643 1.6359403729438782e-02</internalNodes>
          <leafValues>
            -1.4756351709365845e-01 1.8895493447780609e-01</leafValues></_>
        <_>
          <internalNodes>
            0 -1 399 1.1499881744384766e-01</internalNodes>
          <leafValues>
            -3.1511034816503525e-02 7.7482527494430542e-01</leafValues></_>
        <_>
          <internalNodes>
            0 -1 164 2.6388432830572128e-02</internalNodes>
          <leafValues>
            1.5864475071430206e-01 -1.4811255037784576e-01</leafValues></_>
        <_>
          <internalNodes>
            0 -1 813 1.2664253823459148e-02</internalNodes>
          <leafValues>
            -4.3059369921684265e-01 6.1344280838966370e-02</leafValues></_>
        <_>
          <internalNodes>
            0 -1 124 8.8041342794895172e-02</internalNodes>
          <leafValues>
            -5.2517686039209366e-02 5.3413939476013184e-01</leafValues></_>
        <_>
          <internalNodes>
            0 -1 68 5.1902551203966141e-03</internalNodes>
          <leafValues>
            2.0638474822044373e-01 -9.7033277153968811e-02</leafValues></_>
        <_>
          <internalNodes>
            0 -1 49 7.4629053473472595e-02</internalNodes>
          <leafValues>
            4.7061834484338760e-02 -4.9100464582443237e-01</leafValues></_>
        <_>
          <internalNodes>
            0 -1 66 1.0527843236923218e-01</internalNodes>
          <leafValues>
            3.1383823603391647e-02 -6.0617291927337646e-01</leafValues></_>
        <_>
          <internalNodes>
            0 -1 806 4.5222632586956024e-02</internalNodes>
          <leafValues>
            3.1994055956602097e-02 -4.6734669804573059e-01</leafValues></_>
        <_>
          <internalNodes>
            0 -1 463 1.4204668812453747e-02</internalNodes>
          <leafValues>
            1.8252734839916229e-01 -1.2865145504474640e-01</leafValues></_>
        <_>
          <internalNodes>
            0 -1 727 1.1629498563706875e-02</internalNodes>
          <leafValues>
            -2.1396647393703461e-01 1.2081780284643173e-01</leafValues></_>
        <_>
          <internalNodes>
            0 -1 770 4.3692469596862793e-02</internalNodes>
          <leafValues>
            7.5995013117790222e-02 -2.9745903611183167e-01</leafValues></_>
        <_>
          <internalNodes>
            0 -1 555 4.0330331772565842e-02</internalNodes>
          <leafValues>
            -9.4718366861343384e-02 2.3476643860340118e-01</leafValues></_>
        <_>
          <internalNodes>
            0 -1 600 2.0995536819100380e-02</internalNodes>
          <leafValues>
            -9.2059314250946045e-02 2.1845275163650513e-01</leafValues></_>
        <_>
          <internalNodes>
            0 -1 26 3.9568904787302017e-02</internalNodes>
          <leafValues>
            -8.7665066123008728e-02 2.5959810614585876e-01</leafValues></_>
        <_>
          <internalNodes>
            0 -1 412 2.0554866641759872e-03</internalNodes>
          <leafValues>
            3.4510245919227600e-01 -6.2043953686952591e-02</leafValues></_>
        <_>
          <internalNodes>
            0 -1 341 3.1497806310653687e-02</internalNodes>
          <leafValues>
            -6.9347903132438660e-02 3.0811575055122375e-01</leafValues></_>
        <_>
          <internalNodes>
            0 -1 53 8.5403040051460266e-02</internalNodes>
          <leafValues>
            -4.2412523180246353e-02 3.9992088079452515e-01</leafValues></_>
        <_>
          <internalNodes>
            0 -1 81 7.7753655612468719e-02</internalNodes>
          <leafValues>
            -3.5584226250648499e-02 5.0426107645034790e-01</leafValues></_>
        <_>
          <internalNodes>
            0 -1 453 2.1090352535247803e-01</internalNodes>
          <leafValues>
            2.2088024765253067e-02 -1.</leafValues></_>
        <_>
          <internalNodes>
            0 -1 699 2.8769327327609062e-03</internalNodes>
          <leafValues>
            -4.7806859016418457e-01 3.2007858157157898e-02</leafValues></_>
        <_>
          <internalNodes>
            0 -1 572 6.5837204456329346e-02</internalNodes>
          <leafValues>
            -4.7037947922945023e-02 4.3931755423545837e-01</leafValues></_>
        <_>
          <internalNodes>
            0 -1 579 4.5795209705829620e-02</internalNodes>
          <leafValues>
            5.7649485766887665e-02 -3.6329752206802368e-01</leafValues></_>
        <_>
          <internalNodes>
            0 -1 635 8.0558523535728455e-02</internalNodes>
          <leafValues>
            2.2937789559364319e-02 -7.4109691381454468e-01</leafValues></_>
        <_>
          <internalNodes>
            0 -1 830 3.0057433992624283e-02</internalNodes>
          <leafValues>
            6.6778533160686493e-02 -2.6982837915420532e-01</leafValues></_>
        <_>
          <internalNodes>
            0 -1 666 7.1829534135758877e-03</internalNodes>
          <leafValues>
            -1.7610926926136017e-01 1.1033766716718674e-01</leafValues></_>
        <_>
          <internalNodes>
            0 -1 111 6.8475276231765747e-02</internalNodes>
          <leafValues>
            -6.2050826847553253e-02 3.2870641350746155e-01</leafValues></_>
        <_>
          <internalNodes>
            0 -1 400 3.4502260386943817e-02</internalNodes>
          <leafValues>
            -7.1244992315769196e-02 2.7246090769767761e-01</leafValues></_>
        <_>
          <internalNodes>
            0 -1 697 1.1607488617300987e-02</internalNodes>
          <leafValues>
            -2.3285460472106934e-01 8.5992686450481415e-02</leafValues></_>
        <_>
          <internalNodes>
            0 -1 650 5.7154409587383270e-02</internalNodes>
          <leafValues>
            -7.6190836727619171e-02 2.7839824557304382e-01</leafValues></_>
        <_>
          <internalNodes>
            0 -1 680 7.6482340693473816e-02</internalNodes>
          <leafValues>
            -2.8759004548192024e-02 7.4557721614837646e-01</leafValues></_>
        <_>
          <internalNodes>
            0 -1 67 6.0769826173782349e-02</internalNodes>
          <leafValues>
            -3.7791680544614792e-02 3.9497017860412598e-01</leafValues></_>
        <_>
          <internalNodes>
            0 -1 816 6.2271435745060444e-03</internalNodes>
          <leafValues>
            -3.7140402197837830e-01 5.3441807627677917e-02</leafValues></_>
        <_>
          <internalNodes>
            0 -1 242 4.7586061060428619e-02</internalNodes>
          <leafValues>
            7.0303939282894135e-02 -2.4187768995761871e-01</leafValues></_>
        <_>
          <internalNodes>
            0 -1 766 1.6112320125102997e-02</internalNodes>
          <leafValues>
            1.6919609904289246e-01 -1.0349081456661224e-01</leafValues></_>
        <_>
          <internalNodes>
            0 -1 785 2.2619264200329781e-02</internalNodes>
          <leafValues>
            -1.1366055905818939e-01 1.7214715480804443e-01</leafValues></_>
        <_>
          <internalNodes>
            0 -1 689 4.3128438293933868e-02</internalNodes>
          <leafValues>
            -5.0865314900875092e-02 3.5183414816856384e-01</leafValues></_>
        <_>
          <internalNodes>
            0 -1 165 1.5799932181835175e-02</internalNodes>
          <leafValues>
            1.0467869043350220e-01 -2.0628170669078827e-01</leafValues></_>
        <_>
          <internalNodes>
            0 -1 482 1.3341793417930603e-01</internalNodes>
          <leafValues>
            1.3645174913108349e-02 -9.7652614116668701e-01</leafValues></_>
        <_>
          <internalNodes>
            0 -1 75 1.0892740637063980e-01</internalNodes>
          <leafValues>
            -4.3797452002763748e-02 5.6796336174011230e-01</leafValues></_>
        <_>
          <internalNodes>
            0 -1 33 9.6502497792243958e-02</internalNodes>
          <leafValues>
            4.1159644722938538e-02 -5.2361792325973511e-01</leafValues></_>
        <_>
          <internalNodes>
            0 -1 157 5.3380327299237251e-03</internalNodes>
          <leafValues>
            1.9088163971900940e-01 -9.1072410345077515e-02</leafValues></_>
        <_>
          <internalNodes>
            0 -1 444 1.0112611949443817e-01</internalNodes>
          <leafValues>
            2.3774459958076477e-02 -6.7713469266891479e-01</leafValues></_>
        <_>
          <internalNodes>
            0 -1 282 2.4560006568208337e-04</internalNodes>
          <leafValues>
            -5.7902151346206665e-01 2.2602949291467667e-02</leafValues></_>
        <_>
          <internalNodes>
            0 -1 264 1.7515158280730247e-02</internalNodes>
          <leafValues>
            1.5989726781845093e-01 -1.0779814422130585e-01</leafValues></_>
        <_>
          <internalNodes>
            0 -1 659 2.9082421213388443e-02</internalNodes>
          <leafValues>
            -1.1913218349218369e-01 1.8597497045993805e-01</leafValues></_>
        <_>
          <internalNodes>
            0 -1 291 2.3055627942085266e-02</internalNodes>
          <leafValues>
            1.2062101811170578e-01 -1.5431365370750427e-01</leafValues></_>
        <_>
          <internalNodes>
            0 -1 547 2.9802452772855759e-03</internalNodes>
          <leafValues>
            -5.0364673137664795e-01 3.3070236444473267e-02</leafValues></_>
        <_>
          <internalNodes>
            0 -1 456 2.5539484340697527e-03</internalNodes>
          <leafValues>
            3.4340062737464905e-01 -6.4250797033309937e-02</leafValues></_>
        <_>
          <internalNodes>
            0 -1 805 6.5980996005237103e-03</internalNodes>
          <leafValues>
            2.9940029978752136e-01 -5.9962645173072815e-02</leafValues></_>
        <_>
          <internalNodes>
            0 -1 492 1.0468354448676109e-02</internalNodes>
          <leafValues>
            -2.1661828458309174e-01 8.1897169351577759e-02</leafValues></_>
        <_>
          <internalNodes>
            0 -1 266 8.3317652752157301e-05</internalNodes>
          <leafValues>
            -4.8936700820922852e-01 3.2193277031183243e-02</leafValues></_>
        <_>
          <internalNodes>
            0 -1 94 5.0639986991882324e-02</internalNodes>
          <leafValues>
            -6.7714482545852661e-02 2.5569584965705872e-01</leafValues></_>
        <_>
          <internalNodes>
            0 -1 662 2.6203723624348640e-02</internalNodes>
          <leafValues>
            -9.1716282069683075e-02 1.9405271112918854e-01</leafValues></_>
        <_>
          <internalNodes>
            0 -1 270 1.8743213731795549e-03</internalNodes>
          <leafValues>
            4.7596651315689087e-01 -3.4573860466480255e-02</leafValues></_>
        <_>
          <internalNodes>
            0 -1 743 1.0276530869305134e-02</internalNodes>
          <leafValues>
            -2.4307385087013245e-01 7.0742405951023102e-02</leafValues></_>
        <_>
          <internalNodes>
            0 -1 477 6.6511772572994232e-02</internalNodes>
          <leafValues>
            -6.4466796815395355e-02 2.7301669120788574e-01</leafValues></_>
        <_>
          <internalNodes>
            0 -1 696 3.3564560115337372e-02</internalNodes>
          <leafValues>
            9.5866195857524872e-02 -2.0305378735065460e-01</leafValues></_>
        <_>
          <internalNodes>
            0 -1 679 4.9939073622226715e-02</internalNodes>
          <leafValues>
            -4.0447603911161423e-02 4.2774665355682373e-01</leafValues></_>
        <_>
          <internalNodes>
            0 -1 738 3.2990365289151669e-03</internalNodes>
          <leafValues>
            -2.9553058743476868e-01 5.8420825749635696e-02</leafValues></_>
        <_>
          <internalNodes>
            0 -1 740 1.0097742080688477e-02</internalNodes>
          <leafValues>
            1.4231275022029877e-01 -1.2578387558460236e-01</leafValues></_>
        <_>
          <internalNodes>
            0 -1 608 8.8650546967983246e-03</internalNodes>
          <leafValues>
            -1.9523274898529053e-01 9.5140352845191956e-02</leafValues></_>
        <_>
          <internalNodes>
            0 -1 475 5.9928655624389648e-02</internalNodes>
          <leafValues>
            -7.1868784725666046e-02 2.6602691411972046e-01</leafValues></_>
        <_>
          <internalNodes>
            0 -1 520 2.4128928780555725e-02</internalNodes>
          <leafValues>
            1.4193646609783173e-01 -1.4831726253032684e-01</leafValues></_>
        <_>
          <internalNodes>
            0 -1 836 6.0463845729827881e-03</internalNodes>
          <leafValues>
            -2.8211295604705811e-01 6.6549442708492279e-02</leafValues></_>
        <_>
          <internalNodes>
            0 -1 78 1.2635418772697449e-01</internalNodes>
          <leafValues>
            1.6619335860013962e-02 -9.2858469486236572e-01</leafValues></_>
        <_>
          <internalNodes>
            0 -1 527 3.4936927258968353e-02</internalNodes>
          <leafValues>
            8.8368885219097137e-02 -1.9175384938716888e-01</leafValues></_>
        <_>
          <internalNodes>
            0 -1 4 6.6957458853721619e-02</internalNodes>
          <leafValues>
            3.9306096732616425e-02 -4.6656534075737000e-01</leafValues></_>
        <_>
          <internalNodes>
            0 -1 584 1.6441157460212708e-01</internalNodes>
          <leafValues>
            1.5531299635767937e-02 -1.</leafValues></_>
        <_>
          <internalNodes>
            0 -1 660 9.8428577184677124e-02</internalNodes>
          <leafValues>
            -3.7719748914241791e-02 5.5497878789901733e-01</leafValues></_>
        <_>
          <internalNodes>
            0 -1 114 6.1061639338731766e-02</internalNodes>
          <leafValues>
            -4.6367075294256210e-02 3.5329815745353699e-01</leafValues></_>
        <_>
          <internalNodes>
            0 -1 593 1.1821233667433262e-02</internalNodes>
          <leafValues>
            -2.9963847994804382e-01 5.7491894811391830e-02</leafValues></_>
        <_>
          <internalNodes>
            0 -1 494 7.4742659926414490e-02</internalNodes>
          <leafValues>
            -5.9754360467195511e-02 3.5749548673629761e-01</leafValues></_></weakClassifiers></_>
    <!-- stage 7 -->
    <_>
      <maxWeakCount>92</maxWeakCount>
      <stageThreshold>-1.1306260824203491e+00</stageThreshold>
      <weakClassifiers>
        <_>
          <internalNodes>
            0 -1 492 3.1408347189426422e-02</internalNodes>
          <leafValues>
            -4.7338759899139404e-01 9.7208857536315918e-02</leafValues></_>
        <_>
          <internalNodes>
            0 -1 390 1.9981617107987404e-02</internalNodes>
          <leafValues>
            1.5222299098968506e-01 -3.9871948957443237e-01</leafValues></_>
        <_>
          <internalNodes>
            0 -1 482 6.7193865776062012e-02</internalNodes>
          <leafValues>
            7.5082354247570038e-02 -7.0641756057739258e-01</leafValues></_>
        <_>
          <internalNodes>
            0 -1 734 5.0110064446926117e-02</internalNodes>
          <leafValues>
            9.8493196070194244e-02 -7.0991867780685425e-01</leafValues></_>
        <_>
          <internalNodes>
            0 -1 561 1.6902649775147438e-02</internalNodes>
          <leafValues>
            -2.2725236415863037e-01 2.1312625706195831e-01</leafValues></_>
        <_>
          <internalNodes>
            0 -1 531 4.2705470696091652e-03</internalNodes>
          <leafValues>
            -4.7487798333168030e-01 8.9473769068717957e-02</leafValues></_>
        <_>
          <internalNodes>
            0 -1 41 2.7767397463321686e-02</internalNodes>
          <leafValues>
            -1.0083726048469543e-01 3.5355186462402344e-01</leafValues></_>
        <_>
          <internalNodes>
            0 -1 432 5.3369868546724319e-02</internalNodes>
          <leafValues>
            -5.7810328900814056e-02 5.5387157201766968e-01</leafValues></_>
        <_>
          <internalNodes>
